=== Run information ===

Scheme:       weka.classifiers.trees.REPTree -M 2 -V 0.001 -N 3 -S 1 -L -1 -I 0.0
Relation:     lexical+host_training
Instances:    159658
Attributes:   11
              num_ip
              reg_time
              country
              registrar
              tld
              dot_num
              avg_host
              max_host
              avg_path
              max_path
              class
Test mode:    10-fold cross-validation

=== Classifier model (full training set) ===


REPTree
============

dot_num < 0.5
|   tld = org
|   |   registrar = markmonitor inc.
|   |   |   num_ip < 2.5 : bad (16.77/5.49) [8.95/1.74]
|   |   |   num_ip >= 2.5 : good (97.11/0.98) [49.54/0.27]
|   |   registrar = ovh
|   |   |   num_ip < 2.5 : bad (21.89/3.77) [7.96/1.87]
|   |   |   num_ip >= 2.5 : good (34.45/0.45) [14.73/0.11]
|   |   registrar = enom inc.
|   |   |   reg_time < 1143129600
|   |   |   |   num_ip < 1 : bad (3.19/0.25) [1.73/0.19]
|   |   |   |   num_ip >= 1
|   |   |   |   |   country = US : good (56.72/2.82) [31.12/4.19]
|   |   |   |   |   country = FR : good (2.46/0.01) [0.94/0.01]
|   |   |   |   |   country = GB : bad (1.21/0.2) [1.14/0.07]
|   |   |   |   |   country = ID : good (0/0) [0/0]
|   |   |   |   |   country = CA : bad (0.2/0.07) [0/0]
|   |   |   |   |   country = CN : good (0/0) [0/0]
|   |   |   |   |   country = DE : good (0.07/0) [0/0]
|   |   |   |   |   country = TR : bad (0/0) [0.07/0]
|   |   |   |   |   country = JP : good (0.2/0) [0/0]
|   |   |   |   |   country = SG : good (0/0) [0/0]
|   |   |   |   |   country = UK : good (0/0) [0/0]
|   |   |   |   |   country = IN : good (0/0) [0/0]
|   |   |   |   |   country = BS : good (0/0) [0/0]
|   |   |   |   |   country = RU : good (0/0) [0/0]
|   |   |   |   |   country = AR : good (0/0) [0/0]
|   |   |   |   |   country = ES : bad (0.07/0) [0/0]
|   |   |   |   |   country = PA : good (3.02/1.01) [2.01/0.01]
|   |   |   |   |   country = IL : good (0.07/0) [0/0]
|   |   |   |   |   country = NZ : good (0/0) [0/0]
|   |   |   |   |   country = UA : good (0/0) [0/0]
|   |   |   |   |   country = AU : good (2.01/0.01) [3.01/0]
|   |   |   |   |   country = TH : bad (0.07/0) [0/0]
|   |   |   |   |   country = NL : good (1.01/0) [1/0]
|   |   |   |   |   country = IT : bad (0.07/0) [0/0]
|   |   |   |   |   country = AT : good (0.07/0) [0/0]
|   |   |   |   |   country = CH : good (0/0) [0/0]
|   |   |   |   |   country = CY : good (0/0) [0/0]
|   |   |   |   |   country = UNITED STATES : good (0/0) [0/0]
|   |   |   |   |   country = CO : good (0/0) [0/0]
|   |   |   |   |   country = BD : good (0/0) [0/0]
|   |   |   |   |   country = FI : good (0/0) [0/0]
|   |   |   |   |   country = BE : good (0.13/0) [0/0]
|   |   |   |   |   country = AL : good (0/0) [0/0]
|   |   |   |   |   country = CZ : good (0/0) [0/0]
|   |   |   |   |   country = NG : good (0/0) [0/0]
|   |   |   |   |   country = PH : good (0.07/0) [0/0]
|   |   |   |   |   country = ZA : bad (0.13/0) [0/0]
|   |   |   |   |   country = COLOMBIA : good (0/0) [0/0]
|   |   |   |   |   country = MY : good (0/0) [0/0]
|   |   |   |   |   country = DK : good (0/0) [0/0]
|   |   |   |   |   country = KR : bad (0.13/0) [0.26/0.07]
|   |   |   |   |   country = IE : good (0/0) [0/0]
|   |   |   |   |   country = PT : good (0/0) [0/0]
|   |   |   |   |   country = KE : good (0/0) [0/0]
|   |   |   |   |   country = LU : good (0/0) [0/0]
|   |   |   |   |   country = DO : good (0/0) [0/0]
|   |   |   |   |   country = EG : good (0/0) [0/0]
|   |   |   |   |   country = IR : good (0/0) [0/0]
|   |   |   |   |   country = PL : good (0/0) [0/0]
|   |   |   |   |   country = RUSSIAN FEDERATION : good (0/0) [0/0]
|   |   |   |   |   country = BR : good (0/0) [0/0]
|   |   |   |   |   country = RO : good (0/0) [0/0]
|   |   |   |   |   country = MX : good (0/0) [0/0]
|   |   |   |   |   country = NO : good (0.07/0) [0.07/0]
|   |   |   |   |   country = AE : good (0/0) [0/0]
|   |   |   |   |   country = PK : good (0/0) [0/0]
|   |   |   |   |   country = CR : good (0/0) [0/0]
|   |   |   |   |   country = GH : good (0/0) [0/0]
|   |   |   |   |   country = SA : good (0/0) [0/0]
|   |   |   |   |   country = LK : good (0/0) [0/0]
|   |   |   |   |   country = BG : good (0/0) [0/0]
|   |   |   |   |   country = HU : good (0/0) [0/0]
|   |   |   |   |   country = SE : good (0.53/0) [0/0]
|   |   |   |   |   country = KW : good (0/0) [0/0]
|   |   |   |   |   country = CZECH REPUBLIC : good (0/0) [0/0]
|   |   |   |   |   country = VE : good (0/0) [0/0]
|   |   |   |   |   country = BRASIL : good (0/0) [0/0]
|   |   |   |   |   country = RS : good (0/0) [0/0]
|   |   |   |   |   country = TL : good (0/0) [0/0]
|   |   |   |   |   country = PE : good (0/0) [0/0]
|   |   |   |   |   country = HK : good (0/0) [0/0]
|   |   |   |   |   country = CHINA : good (0/0) [0/0]
|   |   |   |   |   country = MALAYSIA : good (0/0) [0/0]
|   |   |   |   |   country = UG : good (0/0) [0/0]
|   |   |   |   |   country = JO : good (0/0) [0/0]
|   |   |   |   |   country = LB : good (0/0) [0/0]
|   |   |   |   |   country = POLAND : good (0/0) [0/0]
|   |   |   |   |   country = VN : good (0/0) [0/0]
|   |   |   |   |   country = NP : good (0/0) [0/0]
|   |   |   |   |   country = AM : good (0/0) [0/0]
|   |   |   |   |   country = GR : good (0/0) [0/0]
|   |   |   |   |   country = BY : good (0/0) [0/0]
|   |   |   |   |   country = NA : good (0/0) [0/0]
|   |   |   |   |   country = CL : good (0/0) [0/0]
|   |   |   |   |   country = UNITED KINGDOM : good (0/0) [0/0]
|   |   |   |   |   country = HR : good (0/0) [0/0]
|   |   |   |   |   country = TW : good (0/0) [0/0]
|   |   |   |   |   country = SD : good (0/0) [0/0]
|   |   |   |   |   country = SI : good (0/0) [0/0]
|   |   |   |   |   country = AUSTRALIA : good (0/0) [0/0]
|   |   |   |   |   country = INDIA : good (0/0) [0/0]
|   |   |   |   |   country = DZ : good (0/0) [0/0]
|   |   |   |   |   country = LV : good (0/0) [0/0]
|   |   |   |   |   country = MA : good (0/0) [0/0]
|   |   |   |   |   country = MT : good (0/0) [0/0]
|   |   |   |   |   country = KY : good (0/0) [0/0]
|   |   |   |   |   country = CANADA : good (0/0) [0/0]
|   |   |   |   |   country = QA : good (0/0) [0/0]
|   |   |   |   |   country = UY : good (0/0) [0/0]
|   |   |   |   |   country = MN : good (0/0) [0/0]
|   |   |   |   |   country = PANAMA : good (0/0) [0/0]
|   |   |   reg_time >= 1143129600
|   |   |   |   country = US
|   |   |   |   |   avg_path < 2.88 : good (7.14/1.8) [2.35/0.15]
|   |   |   |   |   avg_path >= 2.88
|   |   |   |   |   |   reg_time < 1216310400 : good (4.86/1.63) [1.15/0.15]
|   |   |   |   |   |   reg_time >= 1216310400 : bad (17.15/1.47) [12.05/0.48]
|   |   |   |   country = FR : bad (0.08/0) [0.2/0]
|   |   |   |   country = GB : good (2.59/0.37) [2.25/1.25]
|   |   |   |   country = ID : bad (11.44/0.08) [8.83/0.01]
|   |   |   |   country = CA : good (1.22/0.21) [0.22/0.22]
|   |   |   |   country = CN : bad (0.53/0.07) [0.43/0]
|   |   |   |   country = DE : good (1.06/0.19) [1.34/0.08]
|   |   |   |   country = TR : bad (0.45/0) [0.36/0]
|   |   |   |   country = JP : bad (0.08/0.07) [0.07/0]
|   |   |   |   country = SG : bad (0/0) [0/0]
|   |   |   |   country = UK : bad (0/0) [0/0]
|   |   |   |   country = IN : bad (0.6/0) [0.31/0.07]
|   |   |   |   country = BS : good (0/0) [0.13/0.07]
|   |   |   |   country = RU : good (0.08/0.01) [0.01/0.01]
|   |   |   |   country = AR : bad (0.23/0) [0.02/0]
|   |   |   |   country = ES : bad (1.29/0.08) [0.23/0]
|   |   |   |   country = PA : bad (6.94/2.05) [4.5/2.01]
|   |   |   |   country = IL : good (0.08/0.01) [0.01/0.01]
|   |   |   |   country = NZ : good (0.08/0.01) [0.01/0.01]
|   |   |   |   country = UA : bad (4.73/0.1) [2.34/0.01]
|   |   |   |   country = AU : bad (1.06/0.27) [0.47/0.13]
|   |   |   |   country = TH : bad (0/0) [0/0]
|   |   |   |   country = NL : bad (11.2/0.08) [3.08/0.08]
|   |   |   |   country = IT : bad (0.08/0) [0.01/0]
|   |   |   |   country = AT : bad (0/0) [0/0]
|   |   |   |   country = CH : bad (0/0) [0/0]
|   |   |   |   country = CY : bad (0/0) [0/0]
|   |   |   |   country = UNITED STATES : bad (0/0) [0/0]
|   |   |   |   country = CO : bad (0/0) [1/0]
|   |   |   |   country = BD : bad (1.29/0.01) [1.23/0]
|   |   |   |   country = FI : bad (0/0) [0/0]
|   |   |   |   country = BE : bad (0/0) [0/0]
|   |   |   |   country = AL : bad (1.14/0.01) [0.08/0]
|   |   |   |   country = CZ : bad (0.08/0) [0.01/0]
|   |   |   |   country = NG : bad (2.59/0.02) [0.78/0]
|   |   |   |   country = PH : bad (0/0) [0/0]
|   |   |   |   country = ZA : bad (0/0) [0/0]
|   |   |   |   country = COLOMBIA : bad (0/0) [0/0]
|   |   |   |   country = MY : bad (1.22/0.01) [0.09/0]
|   |   |   |   country = DK : bad (0.15/0.07) [0.08/0]
|   |   |   |   country = KR : bad (0.23/0) [0.15/0.07]
|   |   |   |   country = IE : bad (0/0) [0/0]
|   |   |   |   country = PT : bad (0/0) [0/0]
|   |   |   |   country = KE : bad (0/0) [1/0]
|   |   |   |   country = LU : bad (0/0) [0/0]
|   |   |   |   country = DO : bad (0/0) [0.07/0]
|   |   |   |   country = EG : bad (0/0) [0/0]
|   |   |   |   country = IR : bad (0/0) [0/0]
|   |   |   |   country = PL : bad (0.15/0) [0.01/0]
|   |   |   |   country = RUSSIAN FEDERATION : bad (0/0) [0/0]
|   |   |   |   country = BR : bad (1.14/0.01) [1.08/0]
|   |   |   |   country = RO : bad (0.08/0) [0.01/0]
|   |   |   |   country = MX : bad (0.15/0) [0.14/0]
|   |   |   |   country = NO : good (0.45/0.12) [0.03/0.03]
|   |   |   |   country = AE : bad (1.14/0.01) [1.08/0]
|   |   |   |   country = PK : bad (6.94/0.05) [2.5/0.01]
|   |   |   |   country = CR : bad (0/0) [1/0]
|   |   |   |   country = GH : bad (0/0) [0/0]
|   |   |   |   country = SA : bad (0/0) [0/0]
|   |   |   |   country = LK : bad (0/0) [0/0]
|   |   |   |   country = BG : bad (0/0) [0.07/0]
|   |   |   |   country = HU : bad (0/0) [0/0]
|   |   |   |   country = SE : bad (0/0) [0.07/0]
|   |   |   |   country = KW : bad (0/0) [0/0]
|   |   |   |   country = CZECH REPUBLIC : bad (0/0) [0/0]
|   |   |   |   country = VE : bad (0/0) [0/0]
|   |   |   |   country = BRASIL : bad (0/0) [0/0]
|   |   |   |   country = RS : bad (14.87/0.11) [5.08/0.02]
|   |   |   |   country = TL : bad (0/0) [0/0]
|   |   |   |   country = PE : bad (0.08/0) [0.34/0]
|   |   |   |   country = HK : bad (0/0) [0/0]
|   |   |   |   country = CHINA : bad (0/0) [0/0]
|   |   |   |   country = MALAYSIA : bad (0/0) [0/0]
|   |   |   |   country = UG : bad (1.14/0.01) [0.08/0]
|   |   |   |   country = JO : bad (0/0) [0/0]
|   |   |   |   country = LB : bad (0/0) [0/0]
|   |   |   |   country = POLAND : bad (0/0) [0/0]
|   |   |   |   country = VN : bad (0/0) [0/0]
|   |   |   |   country = NP : bad (0/0) [0/0]
|   |   |   |   country = AM : bad (0/0) [0/0]
|   |   |   |   country = GR : bad (0/0) [0/0]
|   |   |   |   country = BY : bad (0/0) [0/0]
|   |   |   |   country = NA : bad (0/0) [0/0]
|   |   |   |   country = CL : bad (0.15/0) [0.01/0]
|   |   |   |   country = UNITED KINGDOM : bad (0/0) [0/0]
|   |   |   |   country = HR : bad (0/0) [0/0]
|   |   |   |   country = TW : bad (0/0) [0/0]
|   |   |   |   country = SD : bad (0/0) [0/0]
|   |   |   |   country = SI : bad (0/0) [0/0]
|   |   |   |   country = AUSTRALIA : bad (0/0) [0/0]
|   |   |   |   country = INDIA : bad (0/0) [0/0]
|   |   |   |   country = DZ : bad (0/0) [0/0]
|   |   |   |   country = LV : bad (0/0) [0.07/0]
|   |   |   |   country = MA : bad (0/0) [0/0]
|   |   |   |   country = MT : bad (0/0) [0/0]
|   |   |   |   country = KY : bad (0/0) [0/0]
|   |   |   |   country = CANADA : bad (0/0) [0/0]
|   |   |   |   country = QA : bad (0/0) [0/0]
|   |   |   |   country = UY : bad (0/0) [0/0]
|   |   |   |   country = MN : bad (0/0) [0/0]
|   |   |   |   country = PANAMA : bad (0/0) [0/0]
|   |   registrar = csc corporate domains inc. : good (3.6/0.36) [2.3/0.2]
|   |   registrar = register.com inc.
|   |   |   reg_time < 1143129600
|   |   |   |   num_ip < 1 : bad (4.1/0.32) [2.16/0.15]
|   |   |   |   num_ip >= 1 : good (88.73/2.14) [42.22/0.98]
|   |   |   reg_time >= 1143129600 : bad (11.46/4.06) [5.31/1.37]
|   |   registrar = domain.com llc
|   |   |   reg_time < 1156564800 : good (4.88/0.45) [1.36/0.21]
|   |   |   reg_time >= 1156564800 : bad (7.11/0.37) [4.64/2.16]
|   |   registrar = cv. jogjacamp : good (0/0) [0/0]
|   |   registrar = network solutions llc
|   |   |   num_ip < 1 : bad (19.04/1.51) [9.98/0.65]
|   |   |   num_ip >= 1
|   |   |   |   country = US
|   |   |   |   |   reg_time < 916459200 : good (157.36/2.51) [73.45/1.23]
|   |   |   |   |   reg_time >= 916459200
|   |   |   |   |   |   num_ip < 2.5
|   |   |   |   |   |   |   max_path < 12.5
|   |   |   |   |   |   |   |   max_host < 4.5 : good (40.16/0.16) [24.9/0]
|   |   |   |   |   |   |   |   max_host >= 4.5
|   |   |   |   |   |   |   |   |   avg_host < 22.5
|   |   |   |   |   |   |   |   |   |   reg_time < 940046400 : good (13.31/1.06) [2.69/0.2]
|   |   |   |   |   |   |   |   |   |   reg_time >= 940046400
|   |   |   |   |   |   |   |   |   |   |   avg_path < 5.55
|   |   |   |   |   |   |   |   |   |   |   |   max_host < 8.5 : bad (9.1/1.51) [6.63/1.04]
|   |   |   |   |   |   |   |   |   |   |   |   max_host >= 8.5
|   |   |   |   |   |   |   |   |   |   |   |   |   max_host < 17 : good (15.94/1.84) [13.63/5.74]
|   |   |   |   |   |   |   |   |   |   |   |   |   max_host >= 17 : bad (5.73/1.16) [1.8/0.16]
|   |   |   |   |   |   |   |   |   |   |   avg_path >= 5.55 : bad (10.1/1.08) [9.23/3.61]
|   |   |   |   |   |   |   |   |   avg_host >= 22.5 : good (28.37/0.32) [22.48/0.48]
|   |   |   |   |   |   |   max_path >= 12.5 : bad (13.69/1.19) [8.69/4]
|   |   |   |   |   |   num_ip >= 2.5 : good (77.24/0.97) [43.23/0.28]
|   |   |   |   country = FR
|   |   |   |   |   max_path < 9.5 : bad (2.04/0.02) [0.36/0.03]
|   |   |   |   |   max_path >= 9.5 : good (7.11/0.17) [2.42/0.17]
|   |   |   |   country = GB : good (2.14/0.17) [0.49/0.33]
|   |   |   |   country = ID : good (0/0) [0/0]
|   |   |   |   country = CA : bad (0.65/0.16) [0.32/0]
|   |   |   |   country = CN : bad (1.13/0.16) [0.97/0]
|   |   |   |   country = DE : good (2.42/0.17) [2.66/0.01]
|   |   |   |   country = TR : bad (0.97/0) [0.97/0]
|   |   |   |   country = JP : good (0.65/0) [0.16/0.16]
|   |   |   |   country = SG : good (0/0) [0/0]
|   |   |   |   country = UK : good (0/0) [0/0]
|   |   |   |   country = IN : bad (1.29/0) [0.65/0.17]
|   |   |   |   country = BS : good (0/0) [0.32/0.16]
|   |   |   |   country = RU : good (0.16/0) [0/0]
|   |   |   |   country = AR : bad (0.48/0) [0/0]
|   |   |   |   country = ES : bad (0.48/0.16) [0.32/0]
|   |   |   |   country = PA : bad (0.16/0) [0/0]
|   |   |   |   country = IL : good (0.32/0) [1/0]
|   |   |   |   country = NZ : good (0.16/0) [0/0]
|   |   |   |   country = UA : good (0.32/0.16) [0/0]
|   |   |   |   country = AU : bad (2.26/0.65) [0.98/0.33]
|   |   |   |   country = TH : bad (0.16/0) [0/0]
|   |   |   |   country = NL : bad (1.94/0.01) [0.65/0.17]
|   |   |   |   country = IT : bad (0.32/0) [0/0]
|   |   |   |   country = AT : good (0.16/0) [0/0]
|   |   |   |   country = CH : good (3.02/0.01) [2.02/0.01]
|   |   |   |   country = CY : good (0/0) [0/0]
|   |   |   |   country = UNITED STATES : good (0/0) [0/0]
|   |   |   |   country = CO : good (0/0) [0/0]
|   |   |   |   country = BD : bad (0.32/0) [0.32/0]
|   |   |   |   country = FI : good (0/0) [0/0]
|   |   |   |   country = BE : good (0.32/0) [0/0]
|   |   |   |   country = AL : good (0/0) [0/0]
|   |   |   |   country = CZ : bad (0.16/0) [0/0]
|   |   |   |   country = NG : bad (0.65/0) [1.45/0]
|   |   |   |   country = PH : good (0.16/0) [0/0]
|   |   |   |   country = ZA : bad (0.32/0) [0/0]
|   |   |   |   country = COLOMBIA : good (0/0) [0/0]
|   |   |   |   country = MY : bad (0.16/0) [0/0]
|   |   |   |   country = DK : bad (0.32/0.16) [0.16/0]
|   |   |   |   country = KR : bad (0.81/0) [0.97/0.32]
|   |   |   |   country = IE : good (0/0) [0/0]
|   |   |   |   country = PT : good (0/0) [0/0]
|   |   |   |   country = KE : good (0/0) [0/0]
|   |   |   |   country = LU : good (0/0) [0/0]
|   |   |   |   country = DO : bad (0/0) [0.16/0]
|   |   |   |   country = EG : good (0/0) [0/0]
|   |   |   |   country = IR : good (0/0) [0/0]
|   |   |   |   country = PL : bad (0.32/0) [0/0]
|   |   |   |   country = RUSSIAN FEDERATION : good (0/0) [0/0]
|   |   |   |   country = BR : good (0/0) [0/0]
|   |   |   |   country = RO : bad (0.16/0) [0/0]
|   |   |   |   country = MX : bad (0.32/0) [0.32/0]
|   |   |   |   country = NO : good (1.13/0.16) [0.17/0]
|   |   |   |   country = AE : good (0/0) [0/0]
|   |   |   |   country = PK : bad (0.16/0) [0/0]
|   |   |   |   country = CR : bad (0/0) [2/0]
|   |   |   |   country = GH : good (0/0) [0/0]
|   |   |   |   country = SA : good (0/0) [0/0]
|   |   |   |   country = LK : good (0/0) [0/0]
|   |   |   |   country = BG : bad (0/0) [0.16/0]
|   |   |   |   country = HU : good (0/0) [0/0]
|   |   |   |   country = SE : good (1.29/0) [0.17/0.16]
|   |   |   |   country = KW : good (0/0) [0/0]
|   |   |   |   country = CZECH REPUBLIC : good (0/0) [0/0]
|   |   |   |   country = VE : good (0/0) [0/0]
|   |   |   |   country = BRASIL : good (0/0) [0/0]
|   |   |   |   country = RS : good (0/0) [0/0]
|   |   |   |   country = TL : good (0/0) [0/0]
|   |   |   |   country = PE : bad (0.16/0) [0.8/0]
|   |   |   |   country = HK : good (0/0) [0/0]
|   |   |   |   country = CHINA : good (0/0) [0/0]
|   |   |   |   country = MALAYSIA : good (0/0) [0/0]
|   |   |   |   country = UG : good (0/0) [0/0]
|   |   |   |   country = JO : good (0/0) [0/0]
|   |   |   |   country = LB : good (0/0) [0/0]
|   |   |   |   country = POLAND : good (0/0) [0/0]
|   |   |   |   country = VN : good (0/0) [0/0]
|   |   |   |   country = NP : good (0/0) [0/0]
|   |   |   |   country = AM : good (0/0) [0/0]
|   |   |   |   country = GR : good (6.04/0.02) [1.04/0.02]
|   |   |   |   country = BY : good (0/0) [0/0]
|   |   |   |   country = NA : good (0/0) [0/0]
|   |   |   |   country = CL : bad (0.32/0) [0/0]
|   |   |   |   country = UNITED KINGDOM : good (0/0) [0/0]
|   |   |   |   country = HR : good (0/0) [0/0]
|   |   |   |   country = TW : good (0/0) [0/0]
|   |   |   |   country = SD : good (0/0) [0/0]
|   |   |   |   country = SI : good (0/0) [0/0]
|   |   |   |   country = AUSTRALIA : good (0/0) [0/0]
|   |   |   |   country = INDIA : good (0/0) [0/0]
|   |   |   |   country = DZ : good (0/0) [0/0]
|   |   |   |   country = LV : bad (0/0) [0.16/0]
|   |   |   |   country = MA : good (0/0) [0/0]
|   |   |   |   country = MT : good (0/0) [0/0]
|   |   |   |   country = KY : good (0/0) [0/0]
|   |   |   |   country = CANADA : good (0/0) [0/0]
|   |   |   |   country = QA : good (0/0) [0/0]
|   |   |   |   country = UY : good (0/0) [0/0]
|   |   |   |   country = MN : good (0/0) [0/0]
|   |   |   |   country = PANAMA : good (0/0) [0/0]
|   |   registrar = directi internet solutions pvt. ltd. d/b/a publicdomainregistry.com : good (0/0) [0/0]
|   |   registrar = tucows inc.
|   |   |   reg_time < 1314936000
|   |   |   |   max_path < 29.5
|   |   |   |   |   country = US
|   |   |   |   |   |   reg_time < 1008993600 : bad (17.19/5.45) [3.03/0.34]
|   |   |   |   |   |   reg_time >= 1008993600
|   |   |   |   |   |   |   num_ip < 1 : bad (3.28/0.27) [1.67/0.06]
|   |   |   |   |   |   |   num_ip >= 1 : good (65.95/2.73) [38.51/3.34]
|   |   |   |   |   country = FR : good (2.58/0.18) [1.04/0.13]
|   |   |   |   |   country = GB : good (1.53/0.14) [1.17/0.1]
|   |   |   |   |   country = ID : good (0/0) [0/0]
|   |   |   |   |   country = CA
|   |   |   |   |   |   reg_time < 1087358400
|   |   |   |   |   |   |   max_host < 10.5 : good (7.37/0.31) [4.07/0.07]
|   |   |   |   |   |   |   max_host >= 10.5 : bad (2.34/1.08) [0.18/0.01]
|   |   |   |   |   |   reg_time >= 1087358400 : bad (8.47/1.06) [3.33/0.03]
|   |   |   |   |   country = CN : bad (0.2/0.07) [0.07/0]
|   |   |   |   |   country = DE : good (0.95/0.11) [0.22/0.03]
|   |   |   |   |   country = TR : bad (0.07/0) [0.13/0]
|   |   |   |   |   country = JP : good (0.2/0.01) [0.07/0.07]
|   |   |   |   |   country = SG : good (0/0) [0/0]
|   |   |   |   |   country = UK : good (0/0) [0/0]
|   |   |   |   |   country = IN : bad (1.4/0.01) [0.1/0.07]
|   |   |   |   |   country = BS : good (0/0) [0.06/0]
|   |   |   |   |   country = RU : good (0.07/0) [0/0]
|   |   |   |   |   country = AR : bad (0.2/0) [0.01/0]
|   |   |   |   |   country = ES : bad (2.25/0.08) [1.19/0.01]
|   |   |   |   |   country = PA : bad (0.07/0) [0/0]
|   |   |   |   |   country = IL : good (0.07/0) [0/0]
|   |   |   |   |   country = NZ : good (0/0) [0/0]
|   |   |   |   |   country = UA : bad (0.07/0) [0/0]
|   |   |   |   |   country = AU : bad (0.61/0.07) [0.21/0]
|   |   |   |   |   country = TH : bad (0.07/0) [2/0]
|   |   |   |   |   country = NL : good (1.53/0.52) [1.24/0.23]
|   |   |   |   |   country = IT : bad (0.07/0) [1/0]
|   |   |   |   |   country = AT : good (0.07/0) [0/0]
|   |   |   |   |   country = CH : good (0/0) [0/0]
|   |   |   |   |   country = CY : good (0/0) [0/0]
|   |   |   |   |   country = UNITED STATES : good (0/0) [0/0]
|   |   |   |   |   country = CO : good (0/0) [0/0]
|   |   |   |   |   country = BD : good (0/0) [0/0]
|   |   |   |   |   country = FI : good (0/0) [0/0]
|   |   |   |   |   country = BE : good (0.14/0.01) [0/0]
|   |   |   |   |   country = AL : good (0/0) [0/0]
|   |   |   |   |   country = CZ : good (0/0) [0/0]
|   |   |   |   |   country = NG : good (0/0) [0/0]
|   |   |   |   |   country = PH : good (0.07/0) [0/0]
|   |   |   |   |   country = ZA : bad (0.14/0) [0/0]
|   |   |   |   |   country = COLOMBIA : good (0/0) [0/0]
|   |   |   |   |   country = MY : good (0/0) [0/0]
|   |   |   |   |   country = DK : bad (0.07/0) [0/0]
|   |   |   |   |   country = KR : bad (0.34/0) [0.39/0.13]
|   |   |   |   |   country = IE : good (0/0) [0/0]
|   |   |   |   |   country = PT : good (0/0) [0/0]
|   |   |   |   |   country = KE : good (0/0) [0/0]
|   |   |   |   |   country = LU : good (0/0) [0/0]
|   |   |   |   |   country = DO : bad (0/0) [0.06/0]
|   |   |   |   |   country = EG : good (0/0) [0/0]
|   |   |   |   |   country = IR : good (0/0) [0/0]
|   |   |   |   |   country = PL : bad (0.07/0) [0/0]
|   |   |   |   |   country = RUSSIAN FEDERATION : good (0/0) [0/0]
|   |   |   |   |   country = BR : good (0/0) [0/0]
|   |   |   |   |   country = RO : good (0/0) [0/0]
|   |   |   |   |   country = MX : good (1.19/0.18) [1.16/0.16]
|   |   |   |   |   country = NO : good (0.07/0) [0.07/0]
|   |   |   |   |   country = AE : good (0/0) [0/0]
|   |   |   |   |   country = PK : bad (0.07/0) [0/0]
|   |   |   |   |   country = CR : good (0/0) [0/0]
|   |   |   |   |   country = GH : good (0/0) [0/0]
|   |   |   |   |   country = SA : good (0/0) [0/0]
|   |   |   |   |   country = LK : good (0/0) [0/0]
|   |   |   |   |   country = BG : bad (0/0) [0.06/0]
|   |   |   |   |   country = HU : good (0/0) [0/0]
|   |   |   |   |   country = SE : good (0.54/0.03) [0.02/0.01]
|   |   |   |   |   country = KW : good (0/0) [0/0]
|   |   |   |   |   country = CZECH REPUBLIC : good (0/0) [0/0]
|   |   |   |   |   country = VE : good (0/0) [0/0]
|   |   |   |   |   country = BRASIL : good (0/0) [0/0]
|   |   |   |   |   country = RS : good (0/0) [0/0]
|   |   |   |   |   country = TL : good (0/0) [0/0]
|   |   |   |   |   country = PE : bad (0.07/0) [0.32/0]
|   |   |   |   |   country = HK : good (0/0) [0/0]
|   |   |   |   |   country = CHINA : good (0/0) [0/0]
|   |   |   |   |   country = MALAYSIA : good (0/0) [0/0]
|   |   |   |   |   country = UG : good (0/0) [0/0]
|   |   |   |   |   country = JO : good (0/0) [0/0]
|   |   |   |   |   country = LB : good (0/0) [0/0]
|   |   |   |   |   country = POLAND : good (0/0) [0/0]
|   |   |   |   |   country = VN : good (0/0) [0/0]
|   |   |   |   |   country = NP : good (0/0) [0/0]
|   |   |   |   |   country = AM : good (0/0) [0/0]
|   |   |   |   |   country = GR : good (0/0) [0/0]
|   |   |   |   |   country = BY : good (0/0) [0/0]
|   |   |   |   |   country = NA : good (0/0) [0/0]
|   |   |   |   |   country = CL : bad (0.14/0) [0/0]
|   |   |   |   |   country = UNITED KINGDOM : good (0/0) [0/0]
|   |   |   |   |   country = HR : good (0/0) [0/0]
|   |   |   |   |   country = TW : good (0/0) [0/0]
|   |   |   |   |   country = SD : good (0/0) [0/0]
|   |   |   |   |   country = SI : good (0/0) [0/0]
|   |   |   |   |   country = AUSTRALIA : good (0/0) [0/0]
|   |   |   |   |   country = INDIA : good (0/0) [0/0]
|   |   |   |   |   country = DZ : good (0/0) [0/0]
|   |   |   |   |   country = LV : bad (0/0) [0.06/0]
|   |   |   |   |   country = MA : good (0/0) [0/0]
|   |   |   |   |   country = MT : good (0/0) [0/0]
|   |   |   |   |   country = KY : good (0/0) [0/0]
|   |   |   |   |   country = CANADA : good (0/0) [0/0]
|   |   |   |   |   country = QA : good (0/0) [0/0]
|   |   |   |   |   country = UY : good (0/0) [0/0]
|   |   |   |   |   country = MN : good (0/0) [0/0]
|   |   |   |   |   country = PANAMA : good (0/0) [0/0]
|   |   |   |   max_path >= 29.5 : bad (11.23/0.13) [3.11/0.06]
|   |   |   reg_time >= 1314936000
|   |   |   |   country = US : bad (7.19/0.18) [2.69/1.07]
|   |   |   |   country = FR : bad (0/0) [0.13/0]
|   |   |   |   country = GB : bad (4.21/0.03) [1.17/0]
|   |   |   |   country = ID : bad (5.26/0.04) [1.13/0.01]
|   |   |   |   country = CA : bad (3.22/0.02) [6.14/2]
|   |   |   |   country = CN : bad (0.34/0) [0.33/0]
|   |   |   |   country = DE : good (0.07/0) [0.07/0]
|   |   |   |   country = TR : bad (1.39/0.01) [0.29/0]
|   |   |   |   country = JP : good (0.07/0) [0/0]
|   |   |   |   country = SG : bad (0/0) [0/0]
|   |   |   |   country = UK : bad (0/0) [0/0]
|   |   |   |   country = IN : bad (0.2/0) [0.2/0]
|   |   |   |   country = BS : bad (0/0) [0.06/0]
|   |   |   |   country = RU : bad (0/0) [0/0]
|   |   |   |   country = AR : bad (0/0) [0/0]
|   |   |   |   country = ES : bad (0.07/0) [0/0]
|   |   |   |   country = PA : bad (0/0) [0/0]
|   |   |   |   country = IL : bad (1.12/0.07) [0.03/0]
|   |   |   |   country = NZ : good (0.07/0) [0/0]
|   |   |   |   country = UA : bad (0/0) [0/0]
|   |   |   |   country = AU : good (0.34/0.14) [0.2/0.07]
|   |   |   |   country = TH : bad (0/0) [0/0]
|   |   |   |   country = NL : bad (0.34/0) [0.07/0.06]
|   |   |   |   country = IT : bad (0.07/0) [0/0]
|   |   |   |   country = AT : bad (0/0) [0/0]
|   |   |   |   country = CH : bad (0/0) [0/0]
|   |   |   |   country = CY : bad (0/0) [0/0]
|   |   |   |   country = UNITED STATES : bad (0/0) [0/0]
|   |   |   |   country = CO : bad (0/0) [0/0]
|   |   |   |   country = BD : bad (0.13/0) [0.13/0]
|   |   |   |   country = FI : bad (0/0) [0/0]
|   |   |   |   country = BE : bad (0/0) [0/0]
|   |   |   |   country = AL : bad (0/0) [0/0]
|   |   |   |   country = CZ : bad (0.07/0) [0/0]
|   |   |   |   country = NG : bad (0.27/0) [0.58/0]
|   |   |   |   country = PH : bad (0/0) [0/0]
|   |   |   |   country = ZA : bad (10.52/0.07) [2.25/0.01]
|   |   |   |   country = COLOMBIA : bad (0/0) [0/0]
|   |   |   |   country = MY : bad (0.07/0) [0/0]
|   |   |   |   country = DK : bad (0.07/0.06) [0.07/0]
|   |   |   |   country = KR : bad (0/0) [0/0]
|   |   |   |   country = IE : bad (0/0) [0/0]
|   |   |   |   country = PT : bad (0/0) [0/0]
|   |   |   |   country = KE : bad (0/0) [0/0]
|   |   |   |   country = LU : bad (0/0) [0/0]
|   |   |   |   country = DO : bad (0/0) [0/0]
|   |   |   |   country = EG : bad (0/0) [0/0]
|   |   |   |   country = IR : bad (0/0) [0/0]
|   |   |   |   country = PL : bad (0.07/0) [0/0]
|   |   |   |   country = RUSSIAN FEDERATION : bad (0/0) [0/0]
|   |   |   |   country = BR : bad (0/0) [0/0]
|   |   |   |   country = RO : bad (0.07/0) [0/0]
|   |   |   |   country = MX : bad (0/0) [0/0]
|   |   |   |   country = NO : good (0.4/0.08) [0.01/0.01]
|   |   |   |   country = AE : bad (0/0) [0/0]
|   |   |   |   country = PK : bad (0/0) [0/0]
|   |   |   |   country = CR : bad (0/0) [0/0]
|   |   |   |   country = GH : bad (0/0) [0/0]
|   |   |   |   country = SA : bad (0/0) [0/0]
|   |   |   |   country = LK : bad (0/0) [0/0]
|   |   |   |   country = BG : bad (0/0) [0/0]
|   |   |   |   country = HU : bad (0/0) [0/0]
|   |   |   |   country = SE : bad (0/0) [0.06/0]
|   |   |   |   country = KW : bad (0/0) [0/0]
|   |   |   |   country = CZECH REPUBLIC : bad (0/0) [0/0]
|   |   |   |   country = VE : bad (0/0) [0/0]
|   |   |   |   country = BRASIL : bad (0/0) [0/0]
|   |   |   |   country = RS : bad (0/0) [0/0]
|   |   |   |   country = TL : bad (0/0) [0/0]
|   |   |   |   country = PE : bad (0/0) [0/0]
|   |   |   |   country = HK : bad (0/0) [0/0]
|   |   |   |   country = CHINA : bad (0/0) [0/0]
|   |   |   |   country = MALAYSIA : bad (0/0) [0/0]
|   |   |   |   country = UG : bad (0/0) [0/0]
|   |   |   |   country = JO : bad (0/0) [0/0]
|   |   |   |   country = LB : bad (0/0) [0/0]
|   |   |   |   country = POLAND : bad (0/0) [0/0]
|   |   |   |   country = VN : bad (0/0) [0/0]
|   |   |   |   country = NP : bad (0/0) [0/0]
|   |   |   |   country = AM : bad (6.31/0.04) [5.15/0.01]
|   |   |   |   country = GR : bad (0/0) [0/0]
|   |   |   |   country = BY : bad (0/0) [0/0]
|   |   |   |   country = NA : bad (0/0) [0/0]
|   |   |   |   country = CL : bad (0/0) [0/0]
|   |   |   |   country = UNITED KINGDOM : bad (0/0) [0/0]
|   |   |   |   country = HR : bad (0/0) [0/0]
|   |   |   |   country = TW : bad (0/0) [0/0]
|   |   |   |   country = SD : bad (0/0) [0/0]
|   |   |   |   country = SI : bad (0/0) [0/0]
|   |   |   |   country = AUSTRALIA : bad (0/0) [0/0]
|   |   |   |   country = INDIA : bad (0/0) [0/0]
|   |   |   |   country = DZ : bad (0/0) [0/0]
|   |   |   |   country = LV : bad (0/0) [0/0]
|   |   |   |   country = MA : bad (0/0) [0/0]
|   |   |   |   country = MT : bad (0/0) [0/0]
|   |   |   |   country = KY : bad (0/0) [0/0]
|   |   |   |   country = CANADA : bad (0/0) [0/0]
|   |   |   |   country = QA : bad (0/0) [0/0]
|   |   |   |   country = UY : bad (0/0) [0/0]
|   |   |   |   country = MN : bad (0/0) [0/0]
|   |   |   |   country = PANAMA : bad (0/0) [0/0]
|   |   registrar = network solutions llc. : good (0/0) [0/0]
|   |   registrar = namesecure.com : good (0/0) [0/0]
|   |   registrar = godaddy.com llc
|   |   |   num_ip < 2.5
|   |   |   |   country = US
|   |   |   |   |   reg_time < 1254196800
|   |   |   |   |   |   max_host < 4.5 : good (19.6/1.55) [10.21/0]
|   |   |   |   |   |   max_host >= 4.5
|   |   |   |   |   |   |   reg_time < 1238083200
|   |   |   |   |   |   |   |   max_path < 18.5
|   |   |   |   |   |   |   |   |   max_host < 12.5
|   |   |   |   |   |   |   |   |   |   avg_host < 8.5
|   |   |   |   |   |   |   |   |   |   |   reg_time < 992448000 : good (4.62/1.5) [1.35/0.34]
|   |   |   |   |   |   |   |   |   |   |   reg_time >= 992448000 : bad (13.58/1.59) [4.25/0.04]
|   |   |   |   |   |   |   |   |   |   avg_host >= 8.5
|   |   |   |   |   |   |   |   |   |   |   max_path < 10.5
|   |   |   |   |   |   |   |   |   |   |   |   max_path < 7.5 : bad (7.64/3.54) [4.28/1.06]
|   |   |   |   |   |   |   |   |   |   |   |   max_path >= 7.5 : good (14.38/0.38) [5.38/1.38]
|   |   |   |   |   |   |   |   |   |   |   max_path >= 10.5
|   |   |   |   |   |   |   |   |   |   |   |   avg_host < 10.5 : good (3.06/1) [3.06/0.06]
|   |   |   |   |   |   |   |   |   |   |   |   avg_host >= 10.5 : bad (4.17/0) [1.06/0]
|   |   |   |   |   |   |   |   |   max_host >= 12.5
|   |   |   |   |   |   |   |   |   |   max_path < 9.5 : bad (38.47/1.54) [19.26/3.06]
|   |   |   |   |   |   |   |   |   |   max_path >= 9.5
|   |   |   |   |   |   |   |   |   |   |   max_host < 18.5
|   |   |   |   |   |   |   |   |   |   |   |   avg_path < 6.93 : bad (2.61/0) [1.82/0.29]
|   |   |   |   |   |   |   |   |   |   |   |   avg_path >= 6.93 : bad (3.14/1.21) [3.17/0.64]
|   |   |   |   |   |   |   |   |   |   |   max_host >= 18.5 : good (4.53/0.21) [1.16/0.16]
|   |   |   |   |   |   |   |   max_path >= 18.5 : bad (13.32/-0) [7.27/2.21]
|   |   |   |   |   |   |   reg_time >= 1238083200 : good (10.01/0.57) [4.15/0.32]
|   |   |   |   |   reg_time >= 1254196800 : bad (187.7/14.26) [84.55/2.87]
|   |   |   |   country = FR : bad (0.23/0) [0.65/0]
|   |   |   |   country = GB
|   |   |   |   |   avg_path < 5.88 : bad (4.38/1.05) [0.68/0.22]
|   |   |   |   |   avg_path >= 5.88 : good (2.99/0.12) [2.29/0.28]
|   |   |   |   country = ID : bad (0/0) [0/0]
|   |   |   |   country = CA : bad (5.22/2.26) [3.66/0.01]
|   |   |   |   country = CN : bad (1.6/0.23) [1.34/0]
|   |   |   |   country = DE : good (4.04/1.46) [2.03/1.17]
|   |   |   |   country = TR : bad (1.37/0.01) [1.33/0]
|   |   |   |   country = JP : good (0.46/0.03) [0.23/0.23]
|   |   |   |   country = SG : bad (0/0) [0/0]
|   |   |   |   country = UK : bad (0/0) [0/0]
|   |   |   |   country = IN : bad (17.97/0.18) [8.66/0.25]
|   |   |   |   country = BS : good (0/0) [0.21/0]
|   |   |   |   country = RU : good (0.23/0.01) [0.01/0.01]
|   |   |   |   country = AR : bad (23.29/0.23) [12.05/0.05]
|   |   |   |   country = ES : bad (0.23/0) [0.43/0]
|   |   |   |   country = PA : bad (2.38/0.02) [0.11/0.01]
|   |   |   |   country = IL : good (0.23/0.01) [1.01/0.01]
|   |   |   |   country = NZ : bad (0/0) [0/0]
|   |   |   |   country = UA : good (0.23/0.01) [0.01/0.01]
|   |   |   |   country = AU
|   |   |   |   |   reg_time < 1373342400
|   |   |   |   |   |   reg_time < 1349539200 : bad (3.64/1.31) [1.08/0.03]
|   |   |   |   |   |   reg_time >= 1349539200 : good (16.36/0.82) [7.68/0.44]
|   |   |   |   |   reg_time >= 1373342400 : bad (9.87/0.07) [5.65/0.01]
|   |   |   |   country = TH : bad (4.53/0.04) [0.2/0.01]
|   |   |   |   country = NL : bad (1.83/0.02) [0.93/0.22]
|   |   |   |   country = IT : bad (0.46/0) [0.02/0]
|   |   |   |   country = AT : good (0.23/0.01) [0.01/0.01]
|   |   |   |   country = CH : bad (0/0) [0/0]
|   |   |   |   country = CY : bad (0/0) [0/0]
|   |   |   |   country = UNITED STATES : bad (0/0) [0/0]
|   |   |   |   country = CO : bad (24.76/0.24) [10.12/0.05]
|   |   |   |   country = BD : bad (0.46/0) [0.44/0]
|   |   |   |   country = FI : bad (0/0) [0/0]
|   |   |   |   country = BE : bad (0/0) [0/0]
|   |   |   |   country = AL : bad (0/0) [0/0]
|   |   |   |   country = CZ : bad (0.23/0) [0.01/0]
|   |   |   |   country = NG : bad (3.07/0.03) [2.05/0.01]
|   |   |   |   country = PH : bad (2.38/1.24) [0.11/0.01]
|   |   |   |   country = ZA : bad (0.46/0) [0.02/0]
|   |   |   |   country = COLOMBIA : bad (0/0) [0/0]
|   |   |   |   country = MY : bad (0.23/0) [2.01/0]
|   |   |   |   country = DK : bad (0.46/0.22) [0.23/0]
|   |   |   |   country = KR : bad (0.91/0.01) [1.31/0.43]
|   |   |   |   country = IE : good (1.08/0.07) [0.05/0.05]
|   |   |   |   country = PT : bad (0/0) [0/0]
|   |   |   |   country = KE : bad (2.15/1.02) [2.1/0]
|   |   |   |   country = LU : bad (0/0) [0/0]
|   |   |   |   country = DO : bad (0/0) [0.21/0]
|   |   |   |   country = EG : bad (0/0) [0/0]
|   |   |   |   country = IR : bad (0/0) [0/0]
|   |   |   |   country = PL : bad (0.23/0) [0.01/0]
|   |   |   |   country = RUSSIAN FEDERATION : bad (0/0) [0/0]
|   |   |   |   country = BR : bad (0/0) [0/0]
|   |   |   |   country = RO : bad (0.23/0) [0.01/0]
|   |   |   |   country = MX : bad (13.37/0.13) [5.03/0.03]
|   |   |   |   country = NO : bad (0/0) [0/0]
|   |   |   |   country = AE : bad (0/0) [0/0]
|   |   |   |   country = PK : bad (1.3/0.01) [1.06/0]
|   |   |   |   country = CR : bad (0/0) [0/0]
|   |   |   |   country = GH : bad (0/0) [0/0]
|   |   |   |   country = SA : bad (0/0) [1/0]
|   |   |   |   country = LK : bad (0/0) [0/0]
|   |   |   |   country = BG : bad (0/0) [0.21/0]
|   |   |   |   country = HU : bad (0/0) [0/0]
|   |   |   |   country = SE : bad (0/0) [0/0]
|   |   |   |   country = KW : bad (0/0) [0/0]
|   |   |   |   country = CZECH REPUBLIC : bad (0/0) [0/0]
|   |   |   |   country = VE : bad (0/0) [0/0]
|   |   |   |   country = BRASIL : bad (0/0) [0/0]
|   |   |   |   country = RS : bad (0/0) [0/0]
|   |   |   |   country = TL : bad (0/0) [0/0]
|   |   |   |   country = PE : bad (0.23/0) [1.07/0]
|   |   |   |   country = HK : bad (0/0) [0/0]
|   |   |   |   country = CHINA : bad (0/0) [0/0]
|   |   |   |   country = MALAYSIA : bad (0/0) [0/0]
|   |   |   |   country = UG : bad (0/0) [0/0]
|   |   |   |   country = JO : bad (0/0) [0/0]
|   |   |   |   country = LB : bad (0/0) [0/0]
|   |   |   |   country = POLAND : bad (0/0) [0/0]
|   |   |   |   country = VN : bad (0/0) [0/0]
|   |   |   |   country = NP : bad (0/0) [0/0]
|   |   |   |   country = AM : bad (0/0) [0/0]
|   |   |   |   country = GR : bad (0/0) [0/0]
|   |   |   |   country = BY : bad (0/0) [0/0]
|   |   |   |   country = NA : bad (0/0) [0/0]
|   |   |   |   country = CL : bad (1.08/0.01) [0.05/0]
|   |   |   |   country = UNITED KINGDOM : bad (0/0) [0/0]
|   |   |   |   country = HR : bad (0/0) [0/0]
|   |   |   |   country = TW : bad (0/0) [0/0]
|   |   |   |   country = SD : bad (0/0) [0/0]
|   |   |   |   country = SI : bad (0/0) [0/0]
|   |   |   |   country = AUSTRALIA : bad (0/0) [0/0]
|   |   |   |   country = INDIA : bad (0/0) [0/0]
|   |   |   |   country = DZ : bad (0/0) [0/0]
|   |   |   |   country = LV : bad (0/0) [0.21/0]
|   |   |   |   country = MA : bad (0/0) [1/0]
|   |   |   |   country = MT : bad (0/0) [0/0]
|   |   |   |   country = KY : bad (0/0) [0/0]
|   |   |   |   country = CANADA : bad (0/0) [0/0]
|   |   |   |   country = QA : bad (0/0) [0/0]
|   |   |   |   country = UY : bad (0/0) [0/0]
|   |   |   |   country = MN : bad (0/0) [0/0]
|   |   |   |   country = PANAMA : bad (0/0) [0/0]
|   |   |   num_ip >= 2.5
|   |   |   |   reg_time < 1215144000
|   |   |   |   |   country = US : good (68.47/0.58) [29.04/0.1]
|   |   |   |   |   country = FR : good (7.89/0.02) [2.98/0.01]
|   |   |   |   |   country = GB : good (0.43/0) [0/0]
|   |   |   |   |   country = ID : good (0/0) [0/0]
|   |   |   |   |   country = CA : good (0/0) [0/0]
|   |   |   |   |   country = CN : good (0/0) [0/0]
|   |   |   |   |   country = DE : good (0.43/0) [0/0]
|   |   |   |   |   country = TR : good (0/0) [0/0]
|   |   |   |   |   country = JP : good (0.43/0) [0/0]
|   |   |   |   |   country = SG : good (0/0) [0/0]
|   |   |   |   |   country = UK : good (0/0) [0/0]
|   |   |   |   |   country = IN : good (0/0) [0/0]
|   |   |   |   |   country = BS : good (0/0) [0/0]
|   |   |   |   |   country = RU : good (0/0) [0/0]
|   |   |   |   |   country = AR : good (0/0) [0/0]
|   |   |   |   |   country = ES : good (0.21/0) [0/0]
|   |   |   |   |   country = PA : good (0/0) [0/0]
|   |   |   |   |   country = IL : good (0.21/0) [0/0]
|   |   |   |   |   country = NZ : good (0/0) [0/0]
|   |   |   |   |   country = UA : good (0/0) [0/0]
|   |   |   |   |   country = AU : good (0/0) [0/0]
|   |   |   |   |   country = TH : good (0/0) [0/0]
|   |   |   |   |   country = NL : good (0/0) [0/0]
|   |   |   |   |   country = IT : good (0/0) [0/0]
|   |   |   |   |   country = AT : good (0/0) [0/0]
|   |   |   |   |   country = CH : good (0/0) [0/0]
|   |   |   |   |   country = CY : good (0/0) [0/0]
|   |   |   |   |   country = UNITED STATES : good (0/0) [0/0]
|   |   |   |   |   country = CO : good (0/0) [0/0]
|   |   |   |   |   country = BD : good (0/0) [0/0]
|   |   |   |   |   country = FI : good (0/0) [0/0]
|   |   |   |   |   country = BE : good (0.43/0) [0/0]
|   |   |   |   |   country = AL : good (0/0) [0/0]
|   |   |   |   |   country = CZ : good (0/0) [0/0]
|   |   |   |   |   country = NG : good (0/0) [0/0]
|   |   |   |   |   country = PH : good (0/0) [0/0]
|   |   |   |   |   country = ZA : good (0/0) [0/0]
|   |   |   |   |   country = COLOMBIA : good (0/0) [0/0]
|   |   |   |   |   country = MY : good (0/0) [0/0]
|   |   |   |   |   country = DK : good (0/0) [0/0]
|   |   |   |   |   country = KR : good (0/0) [0/0]
|   |   |   |   |   country = IE : good (0/0) [0/0]
|   |   |   |   |   country = PT : good (0/0) [0/0]
|   |   |   |   |   country = KE : good (0/0) [0/0]
|   |   |   |   |   country = LU : good (0/0) [0/0]
|   |   |   |   |   country = DO : good (0/0) [0/0]
|   |   |   |   |   country = EG : good (0/0) [0/0]
|   |   |   |   |   country = IR : good (0/0) [0/0]
|   |   |   |   |   country = PL : good (0/0) [0/0]
|   |   |   |   |   country = RUSSIAN FEDERATION : good (0/0) [0/0]
|   |   |   |   |   country = BR : good (0/0) [0/0]
|   |   |   |   |   country = RO : good (0/0) [0/0]
|   |   |   |   |   country = MX : good (0/0) [0/0]
|   |   |   |   |   country = NO : good (0.21/0) [0.21/0]
|   |   |   |   |   country = AE : good (0/0) [0/0]
|   |   |   |   |   country = PK : good (0/0) [0/0]
|   |   |   |   |   country = CR : good (0/0) [0/0]
|   |   |   |   |   country = GH : good (0/0) [0/0]
|   |   |   |   |   country = SA : good (0/0) [0/0]
|   |   |   |   |   country = LK : good (0/0) [0/0]
|   |   |   |   |   country = BG : good (0/0) [0/0]
|   |   |   |   |   country = HU : good (0/0) [0/0]
|   |   |   |   |   country = SE : good (1.71/0) [0/0]
|   |   |   |   |   country = KW : good (0/0) [0/0]
|   |   |   |   |   country = CZECH REPUBLIC : good (0/0) [0/0]
|   |   |   |   |   country = VE : good (0/0) [0/0]
|   |   |   |   |   country = BRASIL : good (0/0) [0/0]
|   |   |   |   |   country = RS : good (0/0) [0/0]
|   |   |   |   |   country = TL : good (0/0) [0/0]
|   |   |   |   |   country = PE : good (0/0) [0/0]
|   |   |   |   |   country = HK : good (0/0) [0/0]
|   |   |   |   |   country = CHINA : good (0/0) [0/0]
|   |   |   |   |   country = MALAYSIA : good (0/0) [0/0]
|   |   |   |   |   country = UG : good (0/0) [0/0]
|   |   |   |   |   country = JO : good (0/0) [0/0]
|   |   |   |   |   country = LB : good (0/0) [0/0]
|   |   |   |   |   country = POLAND : good (0/0) [0/0]
|   |   |   |   |   country = VN : good (0/0) [0/0]
|   |   |   |   |   country = NP : good (0/0) [0/0]
|   |   |   |   |   country = AM : good (0/0) [0/0]
|   |   |   |   |   country = GR : good (0/0) [0/0]
|   |   |   |   |   country = BY : good (0/0) [0/0]
|   |   |   |   |   country = NA : good (0/0) [0/0]
|   |   |   |   |   country = CL : bad (0.43/0) [0/0]
|   |   |   |   |   country = UNITED KINGDOM : good (0/0) [0/0]
|   |   |   |   |   country = HR : good (0/0) [0/0]
|   |   |   |   |   country = TW : good (0/0) [0/0]
|   |   |   |   |   country = SD : good (0/0) [0/0]
|   |   |   |   |   country = SI : good (0/0) [0/0]
|   |   |   |   |   country = AUSTRALIA : good (0/0) [0/0]
|   |   |   |   |   country = INDIA : good (0/0) [0/0]
|   |   |   |   |   country = DZ : good (0/0) [0/0]
|   |   |   |   |   country = LV : good (0/0) [0/0]
|   |   |   |   |   country = MA : good (0/0) [0/0]
|   |   |   |   |   country = MT : good (0/0) [0/0]
|   |   |   |   |   country = KY : good (0/0) [0/0]
|   |   |   |   |   country = CANADA : good (0/0) [0/0]
|   |   |   |   |   country = QA : good (0/0) [0/0]
|   |   |   |   |   country = UY : good (0/0) [0/0]
|   |   |   |   |   country = MN : good (0/0) [0/0]
|   |   |   |   |   country = PANAMA : good (0/0) [0/0]
|   |   |   |   reg_time >= 1215144000 : bad (8.56/2.57) [3.71/1.06]
|   |   registrar = arsys internet s.l. d/b/a nicline.com : good (0/0) [0/0]
|   |   registrar = pdr ltd. d/b/a publicdomainregistry.com
|   |   |   country = US
|   |   |   |   max_host < 10.5 : good (2.96/0.94) [3.5/0.53]
|   |   |   |   max_host >= 10.5 : bad (3/0.43) [1.04/0.39]
|   |   |   country = FR : good (1.39/0.09) [0.64/0.15]
|   |   |   country = GB : good (0.26/0.05) [0.11/0.08]
|   |   |   country = ID : bad (1.05/0.01) [2.04/0]
|   |   |   country = CA : bad (0.15/0.04) [0.07/0]
|   |   |   country = CN : bad (1.35/0.04) [1.26/0]
|   |   |   country = DE : good (0.55/0.06) [0.16/0.02]
|   |   |   country = TR : bad (0.22/0) [0.22/0]
|   |   |   country = JP : good (0.15/0.01) [0.04/0.04]
|   |   |   country = SG : bad (0/0) [0/0]
|   |   |   country = UK : bad (0/0) [0/0]
|   |   |   country = IN : bad (24.51/1.17) [11.04/0.08]
|   |   |   country = BS : good (0/0) [0.07/0.03]
|   |   |   country = RU : bad (2.14/0.05) [1.08/1]
|   |   |   country = AR : bad (0.11/0) [0/0]
|   |   |   country = ES : bad (0.11/0.04) [0.07/0]
|   |   |   country = PA : bad (0.04/0) [0/0]
|   |   |   country = IL : good (0.07/0) [0/0]
|   |   |   country = NZ : bad (1.09/0.04) [0.04/0]
|   |   |   country = UA : bad (0.07/0.04) [0/0]
|   |   |   country = AU : bad (2.62/0.16) [3.3/2.07]
|   |   |   country = TH : bad (4.25/0.03) [1.16/0.01]
|   |   |   country = NL : bad (0.44/0) [0.16/0.04]
|   |   |   country = IT : bad (0.07/0) [0/0]
|   |   |   country = AT : good (0.04/0) [0/0]
|   |   |   country = CH : bad (0/0) [0/0]
|   |   |   country = CY : bad (0/0) [0/0]
|   |   |   country = UNITED STATES : bad (0/0) [0/0]
|   |   |   country = CO : bad (4.21/0.03) [3.15/0.01]
|   |   |   country = BD : bad (5.34/0.04) [4.27/0.01]
|   |   |   country = FI : bad (0/0) [0/0]
|   |   |   country = BE : good (0.07/0) [0/0]
|   |   |   country = AL : bad (0/0) [0/0]
|   |   |   country = CZ : bad (0.04/0) [0/0]
|   |   |   country = NG : bad (7.52/0.05) [3.59/0.01]
|   |   |   country = PH : good (0.04/0) [0/0]
|   |   |   country = ZA : bad (0.07/0) [0/0]
|   |   |   country = COLOMBIA : bad (0/0) [0/0]
|   |   |   country = MY : bad (0.04/0) [0/0]
|   |   |   country = DK : bad (0.07/0.04) [0.04/0]
|   |   |   country = KR : bad (0.18/0) [0.22/0.07]
|   |   |   country = IE : bad (0/0) [0/0]
|   |   |   country = PT : bad (5.26/0.04) [1.19/0.01]
|   |   |   country = KE : bad (0/0) [0/0]
|   |   |   country = LU : bad (0/0) [0/0]
|   |   |   country = DO : bad (0/0) [0.03/0]
|   |   |   country = EG : bad (0/0) [0/0]
|   |   |   country = IR : bad (0/0) [0/0]
|   |   |   country = PL : good (1.13/0.12) [0.04/0.04]
|   |   |   country = RUSSIAN FEDERATION : bad (0/0) [0/0]
|   |   |   country = BR : bad (12.63/0.09) [3.46/0.02]
|   |   |   country = RO : bad (0.04/0) [0/0]
|   |   |   country = MX : bad (3.23/0.02) [8.19/0.01]
|   |   |   country = NO : good (0.26/0.05) [0.04/0.01]
|   |   |   country = AE : bad (0/0) [0/0]
|   |   |   country = PK : bad (2.14/0.02) [0.08/0]
|   |   |   country = CR : bad (1.05/0.01) [2.04/0]
|   |   |   country = GH : bad (0/0) [0/0]
|   |   |   country = SA : bad (0/0) [0/0]
|   |   |   country = LK : bad (0/0) [0/0]
|   |   |   country = BG : bad (1.05/0.01) [2.07/0]
|   |   |   country = HU : bad (0/0) [0/0]
|   |   |   country = SE : good (0.29/0.01) [0.05/0.04]
|   |   |   country = KW : bad (0/0) [0/0]
|   |   |   country = CZECH REPUBLIC : bad (0/0) [0/0]
|   |   |   country = VE : bad (0/0) [0/0]
|   |   |   country = BRASIL : bad (0/0) [0/0]
|   |   |   country = RS : bad (0/0) [0/0]
|   |   |   country = TL : bad (0/0) [0/0]
|   |   |   country = PE : bad (0.04/0) [0.18/0]
|   |   |   country = HK : bad (0/0) [0/0]
|   |   |   country = CHINA : bad (0/0) [0/0]
|   |   |   country = MALAYSIA : bad (0/0) [0/0]
|   |   |   country = UG : bad (0/0) [0/0]
|   |   |   country = JO : bad (0/0) [0/0]
|   |   |   country = LB : bad (0/0) [0/0]
|   |   |   country = POLAND : bad (0/0) [0/0]
|   |   |   country = VN : bad (0/0) [0/0]
|   |   |   country = NP : bad (1.05/0.01) [1.04/0]
|   |   |   country = AM : bad (0/0) [0/0]
|   |   |   country = GR : bad (0/0) [0/0]
|   |   |   country = BY : bad (0/0) [0/0]
|   |   |   country = NA : bad (0/0) [0/0]
|   |   |   country = CL : bad (0.07/0) [0/0]
|   |   |   country = UNITED KINGDOM : bad (0/0) [0/0]
|   |   |   country = HR : bad (0/0) [0/0]
|   |   |   country = TW : bad (0/0) [0/0]
|   |   |   country = SD : bad (0/0) [0/0]
|   |   |   country = SI : bad (0/0) [0/0]
|   |   |   country = AUSTRALIA : bad (0/0) [0/0]
|   |   |   country = INDIA : bad (0/0) [0/0]
|   |   |   country = DZ : bad (0/0) [0/0]
|   |   |   country = LV : bad (1.05/0.01) [2.07/0]
|   |   |   country = MA : bad (0/0) [0/0]
|   |   |   country = MT : bad (0/0) [0/0]
|   |   |   country = KY : bad (0/0) [0/0]
|   |   |   country = CANADA : bad (0/0) [0/0]
|   |   |   country = QA : bad (0/0) [0/0]
|   |   |   country = UY : bad (0/0) [0/0]
|   |   |   country = MN : bad (0/0) [0/0]
|   |   |   country = PANAMA : bad (0/0) [0/0]
|   |   registrar = key-systems gmbh (r51-lror)
|   |   |   num_ip < 2.5 : bad (4.76/2.7) [1.59/0.35]
|   |   |   num_ip >= 2.5
|   |   |   |   country = US : good (0.27/0.04) [0.12/0.01]
|   |   |   |   country = FR : good (0.32/0) [0.12/0]
|   |   |   |   country = GB : good (0.03/0.01) [0/0]
|   |   |   |   country = ID : good (0/0) [0/0]
|   |   |   |   country = CA : good (0/0) [0/0]
|   |   |   |   country = CN : bad (0.01/0) [0/0]
|   |   |   |   country = DE : good (15.1/0.03) [11.03/0.02]
|   |   |   |   country = TR : good (0/0) [0/0]
|   |   |   |   country = JP : good (0.02/0) [0/0]
|   |   |   |   country = SG : good (0/0) [0/0]
|   |   |   |   country = UK : good (0/0) [0/0]
|   |   |   |   country = IN : good (0/0) [0/0]
|   |   |   |   country = BS : bad (0/0) [0.01/0]
|   |   |   |   country = RU : good (0/0) [0/0]
|   |   |   |   country = AR : good (0/0) [0/0]
|   |   |   |   country = ES : good (0.02/0.01) [0/0]
|   |   |   |   country = PA : good (0/0) [0/0]
|   |   |   |   country = IL : good (0.01/0) [0/0]
|   |   |   |   country = NZ : good (0.01/0) [0/0]
|   |   |   |   country = UA : bad (0.01/0) [0/0]
|   |   |   |   country = AU : good (0.01/0) [0.01/0]
|   |   |   |   country = TH : good (0/0) [0/0]
|   |   |   |   country = NL : good (2.05/0.04) [1/0]
|   |   |   |   country = IT : good (0/0) [0/0]
|   |   |   |   country = AT : good (0/0) [0/0]
|   |   |   |   country = CH : good (0/0) [0/0]
|   |   |   |   country = CY : good (0/0) [0/0]
|   |   |   |   country = UNITED STATES : good (0/0) [0/0]
|   |   |   |   country = CO : good (0/0) [0/0]
|   |   |   |   country = BD : good (0/0) [0/0]
|   |   |   |   country = FI : good (0/0) [0/0]
|   |   |   |   country = BE : good (0.02/0) [0/0]
|   |   |   |   country = AL : good (0/0) [0/0]
|   |   |   |   country = CZ : good (0/0) [0/0]
|   |   |   |   country = NG : good (0/0) [0/0]
|   |   |   |   country = PH : good (0/0) [0/0]
|   |   |   |   country = ZA : good (0/0) [0/0]
|   |   |   |   country = COLOMBIA : good (0/0) [0/0]
|   |   |   |   country = MY : good (0/0) [0/0]
|   |   |   |   country = DK : good (0/0) [0/0]
|   |   |   |   country = KR : bad (0.01/0) [0/0]
|   |   |   |   country = IE : good (0/0) [0/0]
|   |   |   |   country = PT : good (0/0) [0/0]
|   |   |   |   country = KE : good (0/0) [0/0]
|   |   |   |   country = LU : good (0/0) [0/0]
|   |   |   |   country = DO : good (0/0) [0/0]
|   |   |   |   country = EG : good (0/0) [0/0]
|   |   |   |   country = IR : good (0/0) [0/0]
|   |   |   |   country = PL : bad (0.01/0) [0/0]
|   |   |   |   country = RUSSIAN FEDERATION : good (0/0) [0/0]
|   |   |   |   country = BR : good (0/0) [0/0]
|   |   |   |   country = RO : good (0/0) [0/0]
|   |   |   |   country = MX : good (0/0) [0/0]
|   |   |   |   country = NO : good (0.06/0.01) [0.01/0]
|   |   |   |   country = AE : good (0/0) [0/0]
|   |   |   |   country = PK : good (0/0) [0/0]
|   |   |   |   country = CR : good (0/0) [0/0]
|   |   |   |   country = GH : good (0/0) [0/0]
|   |   |   |   country = SA : good (0/0) [0/0]
|   |   |   |   country = LK : good (0/0) [0/0]
|   |   |   |   country = BG : good (0/0) [0/0]
|   |   |   |   country = HU : good (0/0) [0/0]
|   |   |   |   country = SE : good (0.07/0) [0.01/0.01]
|   |   |   |   country = KW : good (0/0) [0/0]
|   |   |   |   country = CZECH REPUBLIC : good (0/0) [0/0]
|   |   |   |   country = VE : good (0/0) [0/0]
|   |   |   |   country = BRASIL : good (0/0) [0/0]
|   |   |   |   country = RS : good (0/0) [0/0]
|   |   |   |   country = TL : good (0/0) [0/0]
|   |   |   |   country = PE : good (0/0) [0/0]
|   |   |   |   country = HK : good (0/0) [0/0]
|   |   |   |   country = CHINA : good (0/0) [0/0]
|   |   |   |   country = MALAYSIA : good (0/0) [0/0]
|   |   |   |   country = UG : good (0/0) [0/0]
|   |   |   |   country = JO : good (0/0) [0/0]
|   |   |   |   country = LB : good (0/0) [0/0]
|   |   |   |   country = POLAND : good (0/0) [0/0]
|   |   |   |   country = VN : good (0/0) [0/0]
|   |   |   |   country = NP : good (0/0) [0/0]
|   |   |   |   country = AM : good (0/0) [0/0]
|   |   |   |   country = GR : good (0/0) [0/0]
|   |   |   |   country = BY : good (0/0) [0/0]
|   |   |   |   country = NA : good (0/0) [0/0]
|   |   |   |   country = CL : bad (0.02/0) [0/0]
|   |   |   |   country = UNITED KINGDOM : good (0/0) [0/0]
|   |   |   |   country = HR : good (0/0) [0/0]
|   |   |   |   country = TW : good (0/0) [0/0]
|   |   |   |   country = SD : good (0/0) [0/0]
|   |   |   |   country = SI : good (0/0) [0/0]
|   |   |   |   country = AUSTRALIA : good (0/0) [0/0]
|   |   |   |   country = INDIA : good (0/0) [0/0]
|   |   |   |   country = DZ : good (0/0) [0/0]
|   |   |   |   country = LV : good (0/0) [0/0]
|   |   |   |   country = MA : good (0/0) [0/0]
|   |   |   |   country = MT : good (0/0) [0/0]
|   |   |   |   country = KY : good (0/0) [0/0]
|   |   |   |   country = CANADA : good (0/0) [0/0]
|   |   |   |   country = QA : good (0/0) [0/0]
|   |   |   |   country = UY : good (0/0) [0/0]
|   |   |   |   country = MN : good (0/0) [0/0]
|   |   |   |   country = PANAMA : good (0/0) [0/0]
|   |   registrar = godaddy.com llc (r91-lror)
|   |   |   country = US
|   |   |   |   reg_time < 923025600 : good (9.57/0.44) [1.26/0.22]
|   |   |   |   reg_time >= 923025600 : bad (53.05/13.62) [32.3/9.38]
|   |   |   country = FR : good (1.34/0.09) [0.62/0.15]
|   |   |   country = GB : bad (2.35/1.22) [0.19/0.04]
|   |   |   country = ID : bad (0/0) [0/0]
|   |   |   country = CA : good (8.56/0.47) [5.38/0.37]
|   |   |   country = CN : bad (1.33/0.04) [0.25/0]
|   |   |   country = DE : good (0.53/0.06) [0.15/0.02]
|   |   |   country = TR : bad (0.21/0) [0.21/0]
|   |   |   country = JP : good (0.14/0.01) [0.04/0.04]
|   |   |   country = SG : bad (0/0) [0/0]
|   |   |   country = UK : bad (0/0) [0/0]
|   |   |   country = IN : bad (0.28/0) [1.14/0.03]
|   |   |   country = BS : good (0/0) [0.07/0.03]
|   |   |   country = RU : good (0.04/0) [0/0]
|   |   |   country = AR : bad (0.11/0) [0/0]
|   |   |   country = ES : bad (3.26/0.06) [5.19/0.01]
|   |   |   country = PA : bad (0.04/0) [0/0]
|   |   |   country = IL : good (0.07/0) [0/0]
|   |   |   country = NZ : good (0.04/0) [0/0]
|   |   |   country = UA : bad (1.12/0.04) [0.04/0]
|   |   |   country = AU : good (0.49/0.36) [4.22/0.15]
|   |   |   country = TH : bad (0.04/0) [0/0]
|   |   |   country = NL : bad (0.42/0) [0.15/0.03]
|   |   |   country = IT : bad (0.07/0) [0/0]
|   |   |   country = AT : good (0.04/0) [0/0]
|   |   |   country = CH : bad (0/0) [0/0]
|   |   |   country = CY : bad (0/0) [0/0]
|   |   |   country = UNITED STATES : bad (0/0) [0/0]
|   |   |   country = CO : bad (0/0) [0/0]
|   |   |   country = BD : bad (0.07/0) [0.07/0]
|   |   |   country = FI : bad (0/0) [0/0]
|   |   |   country = BE : good (0.07/0) [0/0]
|   |   |   country = AL : bad (2.11/0.01) [1.08/0]
|   |   |   country = CZ : bad (0.04/0) [0/0]
|   |   |   country = NG : bad (0.14/0) [0.31/0]
|   |   |   country = PH : good (0.04/0) [0/0]
|   |   |   country = ZA : bad (0.07/0) [0/0]
|   |   |   country = COLOMBIA : bad (0/0) [0/0]
|   |   |   country = MY : bad (2.14/1.02) [0.08/0]
|   |   |   country = DK : bad (0.07/0.03) [0.04/0]
|   |   |   country = KR : bad (0.18/0) [0.21/0.07]
|   |   |   country = IE : bad (0/0) [0/0]
|   |   |   country = PT : bad (0/0) [0/0]
|   |   |   country = KE : bad (0/0) [0/0]
|   |   |   country = LU : bad (0/0) [0/0]
|   |   |   country = DO : bad (0/0) [0.03/0]
|   |   |   country = EG : bad (0/0) [0/0]
|   |   |   country = IR : bad (0/0) [0/0]
|   |   |   country = PL : bad (0.07/0) [0/0]
|   |   |   country = RUSSIAN FEDERATION : bad (0/0) [0/0]
|   |   |   country = BR : bad (0/0) [0/0]
|   |   |   country = RO : good (1.09/0.08) [0.04/0.04]
|   |   |   country = MX : bad (0.07/0) [0.07/0]
|   |   |   country = NO : good (0.25/0.04) [0.04/0.01]
|   |   |   country = AE : bad (0/0) [0/0]
|   |   |   country = PK : bad (0.04/0) [0/0]
|   |   |   country = CR : bad (0/0) [0/0]
|   |   |   country = GH : bad (0/0) [0/0]
|   |   |   country = SA : bad (0/0) [0/0]
|   |   |   country = LK : bad (0/0) [0/0]
|   |   |   country = BG : bad (0/0) [0.03/0]
|   |   |   country = HU : bad (0/0) [0/0]
|   |   |   country = SE : good (0.28/0.01) [0.04/0.04]
|   |   |   country = KW : bad (0/0) [0/0]
|   |   |   country = CZECH REPUBLIC : bad (0/0) [0/0]
|   |   |   country = VE : bad (0/0) [0/0]
|   |   |   country = BRASIL : bad (0/0) [0/0]
|   |   |   country = RS : bad (0/0) [0/0]
|   |   |   country = TL : bad (0/0) [0/0]
|   |   |   country = PE : bad (0.04/0) [0.17/0]
|   |   |   country = HK : bad (0/0) [0/0]
|   |   |   country = CHINA : bad (0/0) [0/0]
|   |   |   country = MALAYSIA : bad (0/0) [0/0]
|   |   |   country = UG : bad (0/0) [0/0]
|   |   |   country = JO : bad (0/0) [0/0]
|   |   |   country = LB : bad (0/0) [0/0]
|   |   |   country = POLAND : bad (0/0) [0/0]
|   |   |   country = VN : bad (0/0) [0/0]
|   |   |   country = NP : bad (0/0) [0/0]
|   |   |   country = AM : bad (0/0) [0/0]
|   |   |   country = GR : bad (0/0) [0/0]
|   |   |   country = BY : bad (0/0) [0/0]
|   |   |   country = NA : bad (0/0) [0/0]
|   |   |   country = CL : bad (0.07/0) [0/0]
|   |   |   country = UNITED KINGDOM : bad (0/0) [0/0]
|   |   |   country = HR : bad (0/0) [0/0]
|   |   |   country = TW : bad (0/0) [0/0]
|   |   |   country = SD : bad (0/0) [0/0]
|   |   |   country = SI : bad (0/0) [0/0]
|   |   |   country = AUSTRALIA : bad (0/0) [0/0]
|   |   |   country = INDIA : bad (0/0) [0/0]
|   |   |   country = DZ : bad (0/0) [0/0]
|   |   |   country = LV : bad (0/0) [0.03/0]
|   |   |   country = MA : bad (0/0) [0/0]
|   |   |   country = MT : bad (0/0) [0/0]
|   |   |   country = KY : bad (0/0) [0/0]
|   |   |   country = CANADA : bad (0/0) [0/0]
|   |   |   country = QA : bad (0/0) [0/0]
|   |   |   country = UY : bad (0/0) [0/0]
|   |   |   country = MN : bad (0/0) [0/0]
|   |   |   country = PANAMA : bad (0/0) [0/0]
|   |   registrar = gandi sas
|   |   |   num_ip < 2.5
|   |   |   |   avg_path < 3.04 : good (35.72/3.22) [19.75/1.29]
|   |   |   |   avg_path >= 3.04 : bad (19.89/6.02) [13.69/5.27]
|   |   |   num_ip >= 2.5 : good (121.8/2.46) [52.34/1.38]
|   |   registrar = webfusion limited : good (0/0) [0/0]
|   |   registrar = safenames ltd : good (0/0) [0/0]
|   |   registrar = ascio technologies inc : good (0/0) [0/0]
|   |   registrar = internet domain service bs corp. : good (0/0) [0/0]
|   |   registrar = hichina zhicheng technology ltd. : good (0/0) [0/0]
|   |   registrar = eranet international limited : good (0/0) [0/0]
|   |   registrar = evoplus ltd. : good (0/0) [0/0]
|   |   registrar = ru-center-ru : good (0/0) [0/0]
|   |   registrar = 1api gmbh : good (0/0) [0/0]
|   |   registrar = tucows domains inc. : good (0/0) [0/0]
|   |   registrar = nom-iq ltd dba com laude : good (0/0) [0/0]
|   |   registrar = wild west domains llc
|   |   |   num_ip < 2.5 : bad (40.16/11.62) [17.82/2.28]
|   |   |   num_ip >= 2.5 : good (42.56/0.65) [14.06/0.16]
|   |   registrar = r01-ru : good (0/0) [0/0]
|   |   registrar = ???????????? : good (0/0) [0/0]
|   |   registrar = naunet-ru : good (0/0) [0/0]
|   |   registrar = godaddy.com inc. (r91-lror) : bad (49.15/15.29) [39.09/10.3]
|   |   registrar = fastdomain inc.
|   |   |   reg_time < 1330963200 : good (14.93/6.56) [5.34/0.79]
|   |   |   reg_time >= 1330963200
|   |   |   |   country = US : bad (3.25/0.04) [1.15/0.01]
|   |   |   |   country = FR : bad (0/0) [0.02/0]
|   |   |   |   country = GB : bad (0/0) [0.01/0]
|   |   |   |   country = ID : bad (0/0) [0/0]
|   |   |   |   country = CA : bad (0.01/0) [0.01/0]
|   |   |   |   country = CN : bad (0.04/0) [0.04/0]
|   |   |   |   country = DE : good (0.01/0) [0.01/0]
|   |   |   |   country = TR : bad (0.04/0) [0.03/0]
|   |   |   |   country = JP : bad (0/0) [0/0]
|   |   |   |   country = SG : bad (0/0) [0/0]
|   |   |   |   country = UK : bad (0/0) [0/0]
|   |   |   |   country = IN : bad (0.03/0) [0.03/0]
|   |   |   |   country = BS : bad (0/0) [0.01/0]
|   |   |   |   country = RU : bad (0/0) [0/0]
|   |   |   |   country = AR : bad (0/0) [0/0]
|   |   |   |   country = ES : bad (1.06/0.01) [0.03/0]
|   |   |   |   country = PA : bad (0/0) [0/0]
|   |   |   |   country = IL : good (0.01/0) [0/0]
|   |   |   |   country = NZ : good (0.01/0) [0/0]
|   |   |   |   country = UA : bad (0/0) [0/0]
|   |   |   |   country = AU : good (0.04/0.02) [0.03/0.01]
|   |   |   |   country = TH : bad (0/0) [0/0]
|   |   |   |   country = NL : bad (0.04/0) [0.01/0.01]
|   |   |   |   country = IT : bad (0.01/0) [0/0]
|   |   |   |   country = AT : bad (0/0) [0/0]
|   |   |   |   country = CH : bad (0/0) [0/0]
|   |   |   |   country = CY : bad (0/0) [0/0]
|   |   |   |   country = UNITED STATES : bad (0/0) [0/0]
|   |   |   |   country = CO : bad (0/0) [0/0]
|   |   |   |   country = BD : bad (0.02/0) [0.02/0]
|   |   |   |   country = FI : bad (0/0) [0/0]
|   |   |   |   country = BE : bad (0/0) [0/0]
|   |   |   |   country = AL : bad (0/0) [0/0]
|   |   |   |   country = CZ : bad (0.01/0) [0/0]
|   |   |   |   country = NG : bad (0.04/0) [0.08/0]
|   |   |   |   country = PH : bad (0/0) [0/0]
|   |   |   |   country = ZA : bad (0/0) [0/0]
|   |   |   |   country = COLOMBIA : bad (0/0) [0/0]
|   |   |   |   country = MY : bad (0.01/0) [0/0]
|   |   |   |   country = DK : bad (0/0) [0.01/0]
|   |   |   |   country = KR : bad (0/0) [0/0]
|   |   |   |   country = IE : bad (0/0) [0/0]
|   |   |   |   country = PT : bad (0/0) [0/0]
|   |   |   |   country = KE : bad (2.1/0.01) [0.05/0]
|   |   |   |   country = LU : bad (0/0) [0/0]
|   |   |   |   country = DO : bad (0/0) [0/0]
|   |   |   |   country = EG : bad (0/0) [0/0]
|   |   |   |   country = IR : bad (0/0) [0/0]
|   |   |   |   country = PL : bad (0/0) [0/0]
|   |   |   |   country = RUSSIAN FEDERATION : bad (0/0) [0/0]
|   |   |   |   country = BR : bad (0/0) [0/0]
|   |   |   |   country = RO : bad (0.01/0) [0/0]
|   |   |   |   country = MX : bad (0/0) [0/0]
|   |   |   |   country = NO : good (0.05/0.01) [0/0]
|   |   |   |   country = AE : bad (0/0) [0/0]
|   |   |   |   country = PK : bad (0/0) [0/0]
|   |   |   |   country = CR : bad (0/0) [0/0]
|   |   |   |   country = GH : bad (0/0) [0/0]
|   |   |   |   country = SA : bad (0/0) [0/0]
|   |   |   |   country = LK : bad (0/0) [0/0]
|   |   |   |   country = BG : bad (0/0) [0/0]
|   |   |   |   country = HU : bad (0/0) [0/0]
|   |   |   |   country = SE : bad (0/0) [0.01/0]
|   |   |   |   country = KW : bad (0/0) [0/0]
|   |   |   |   country = CZECH REPUBLIC : bad (0/0) [0/0]
|   |   |   |   country = VE : bad (0/0) [0/0]
|   |   |   |   country = BRASIL : bad (0/0) [0/0]
|   |   |   |   country = RS : bad (0/0) [0/0]
|   |   |   |   country = TL : bad (0/0) [0/0]
|   |   |   |   country = PE : bad (0/0) [0/0]
|   |   |   |   country = HK : bad (0/0) [0/0]
|   |   |   |   country = CHINA : bad (0/0) [0/0]
|   |   |   |   country = MALAYSIA : bad (0/0) [0/0]
|   |   |   |   country = UG : bad (0/0) [0/0]
|   |   |   |   country = JO : bad (0/0) [0/0]
|   |   |   |   country = LB : bad (0/0) [0/0]
|   |   |   |   country = POLAND : bad (0/0) [0/0]
|   |   |   |   country = VN : bad (0/0) [0/0]
|   |   |   |   country = NP : bad (0/0) [0/0]
|   |   |   |   country = AM : bad (0/0) [0/0]
|   |   |   |   country = GR : bad (0/0) [0/0]
|   |   |   |   country = BY : bad (0/0) [0/0]
|   |   |   |   country = NA : bad (0/0) [0/0]
|   |   |   |   country = CL : bad (0/0) [0/0]
|   |   |   |   country = UNITED KINGDOM : bad (0/0) [0/0]
|   |   |   |   country = HR : bad (0/0) [0/0]
|   |   |   |   country = TW : bad (0/0) [0/0]
|   |   |   |   country = SD : bad (0/0) [0/0]
|   |   |   |   country = SI : bad (0/0) [0/0]
|   |   |   |   country = AUSTRALIA : bad (0/0) [0/0]
|   |   |   |   country = INDIA : bad (0/0) [0/0]
|   |   |   |   country = DZ : bad (0/0) [0/0]
|   |   |   |   country = LV : bad (0/0) [0/0]
|   |   |   |   country = MA : bad (1.05/0.01) [1.03/0]
|   |   |   |   country = MT : bad (0/0) [0/0]
|   |   |   |   country = KY : bad (0/0) [0/0]
|   |   |   |   country = CANADA : bad (0/0) [0/0]
|   |   |   |   country = QA : bad (0/0) [0/0]
|   |   |   |   country = UY : bad (0/0) [0/0]
|   |   |   |   country = MN : bad (0/0) [0/0]
|   |   |   |   country = PANAMA : bad (0/0) [0/0]
|   |   registrar = godaddy.com inc. : good (0/0) [0/0]
|   |   registrar = key-systems gmbh
|   |   |   num_ip < 4.5
|   |   |   |   reg_time < 1156564800 : good (9.36/2.3) [3.79/1.05]
|   |   |   |   reg_time >= 1156564800
|   |   |   |   |   country = US : bad (9.51/1.18) [1.48/0.66]
|   |   |   |   |   country = FR : bad (0.03/0) [0.08/0]
|   |   |   |   |   country = GB : good (0.1/0.02) [0.03/0.03]
|   |   |   |   |   country = ID : bad (0/0) [0/0]
|   |   |   |   |   country = CA : bad (0.03/0) [0.06/0]
|   |   |   |   |   country = CN : bad (0.2/0) [0.17/0]
|   |   |   |   |   country = DE : good (0.43/0.08) [0.13/0.02]
|   |   |   |   |   country = TR : bad (0.2/0) [0.14/0]
|   |   |   |   |   country = JP : bad (0.03/0.03) [0.03/0]
|   |   |   |   |   country = SG : bad (0/0) [0/0]
|   |   |   |   |   country = UK : bad (0/0) [0/0]
|   |   |   |   |   country = IN : bad (0.26/0) [0.12/0.03]
|   |   |   |   |   country = BS : good (0/0) [0.05/0.03]
|   |   |   |   |   country = RU : good (0.03/0.01) [0/0]
|   |   |   |   |   country = AR : bad (0.1/0) [0.01/0]
|   |   |   |   |   country = ES : bad (0.07/0.03) [0.06/0]
|   |   |   |   |   country = PA : bad (0.03/0) [0/0]
|   |   |   |   |   country = IL : good (0.03/0.01) [0/0]
|   |   |   |   |   country = NZ : bad (1.27/0.04) [4.07/0]
|   |   |   |   |   country = UA : bad (0.07/0.03) [0/0]
|   |   |   |   |   country = AU : bad (0.46/0.11) [0.19/0.05]
|   |   |   |   |   country = TH : bad (0/0) [0/0]
|   |   |   |   |   country = NL : bad (0.4/0) [2.13/0.03]
|   |   |   |   |   country = IT : bad (0.03/0) [0/0]
|   |   |   |   |   country = AT : bad (0/0) [0/0]
|   |   |   |   |   country = CH : bad (2.48/0.03) [0.13/0.01]
|   |   |   |   |   country = CY : bad (0/0) [0/0]
|   |   |   |   |   country = UNITED STATES : bad (0/0) [0/0]
|   |   |   |   |   country = CO : bad (0/0) [0/0]
|   |   |   |   |   country = BD : bad (0.07/0) [0.06/0]
|   |   |   |   |   country = FI : bad (0/0) [0/0]
|   |   |   |   |   country = BE : bad (0/0) [0/0]
|   |   |   |   |   country = AL : bad (0/0) [0/0]
|   |   |   |   |   country = CZ : bad (0.03/0) [0/0]
|   |   |   |   |   country = NG : bad (0.13/0) [0.25/0]
|   |   |   |   |   country = PH : bad (0/0) [0/0]
|   |   |   |   |   country = ZA : bad (0/0) [0/0]
|   |   |   |   |   country = COLOMBIA : bad (0/0) [0/0]
|   |   |   |   |   country = MY : bad (0.03/0) [0/0]
|   |   |   |   |   country = DK : bad (1.3/0.04) [0.1/0]
|   |   |   |   |   country = KR : bad (0.1/0) [0.06/0.03]
|   |   |   |   |   country = IE : bad (0/0) [0/0]
|   |   |   |   |   country = PT : bad (0/0) [0/0]
|   |   |   |   |   country = KE : bad (0/0) [0/0]
|   |   |   |   |   country = LU : bad (0/0) [0/0]
|   |   |   |   |   country = DO : bad (0/0) [0.03/0]
|   |   |   |   |   country = EG : bad (0/0) [0/0]
|   |   |   |   |   country = IR : bad (0/0) [0/0]
|   |   |   |   |   country = PL : bad (5.02/0.06) [1.27/0.01]
|   |   |   |   |   country = RUSSIAN FEDERATION : bad (0/0) [0/0]
|   |   |   |   |   country = BR : bad (0/0) [0/0]
|   |   |   |   |   country = RO : bad (0.03/0) [0/0]
|   |   |   |   |   country = MX : bad (0.07/0) [0.06/0]
|   |   |   |   |   country = NO : good (0.2/0.06) [0.01/0.01]
|   |   |   |   |   country = AE : bad (0/0) [0/0]
|   |   |   |   |   country = PK : bad (0.03/0) [0/0]
|   |   |   |   |   country = CR : bad (0/0) [0/0]
|   |   |   |   |   country = GH : bad (0/0) [0/0]
|   |   |   |   |   country = SA : bad (0/0) [0/0]
|   |   |   |   |   country = LK : bad (0/0) [0/0]
|   |   |   |   |   country = BG : bad (0/0) [0.03/0]
|   |   |   |   |   country = HU : bad (0/0) [0/0]
|   |   |   |   |   country = SE : bad (0/0) [0/0]
|   |   |   |   |   country = KW : bad (0/0) [0/0]
|   |   |   |   |   country = CZECH REPUBLIC : bad (0/0) [0/0]
|   |   |   |   |   country = VE : bad (0/0) [0/0]
|   |   |   |   |   country = BRASIL : bad (0/0) [0/0]
|   |   |   |   |   country = RS : bad (0/0) [0/0]
|   |   |   |   |   country = TL : bad (0/0) [0/0]
|   |   |   |   |   country = PE : bad (0.03/0) [0.14/0]
|   |   |   |   |   country = HK : bad (0/0) [0/0]
|   |   |   |   |   country = CHINA : bad (0/0) [0/0]
|   |   |   |   |   country = MALAYSIA : bad (0/0) [0/0]
|   |   |   |   |   country = UG : bad (0/0) [0/0]
|   |   |   |   |   country = JO : bad (0/0) [0/0]
|   |   |   |   |   country = LB : bad (0/0) [0/0]
|   |   |   |   |   country = POLAND : bad (0/0) [0/0]
|   |   |   |   |   country = VN : bad (0/0) [0/0]
|   |   |   |   |   country = NP : bad (0/0) [0/0]
|   |   |   |   |   country = AM : bad (0/0) [0/0]
|   |   |   |   |   country = GR : bad (0/0) [0/0]
|   |   |   |   |   country = BY : bad (0/0) [0/0]
|   |   |   |   |   country = NA : bad (0/0) [0/0]
|   |   |   |   |   country = CL : bad (0.07/0) [0/0]
|   |   |   |   |   country = UNITED KINGDOM : bad (0/0) [0/0]
|   |   |   |   |   country = HR : bad (0/0) [0/0]
|   |   |   |   |   country = TW : bad (0/0) [0/0]
|   |   |   |   |   country = SD : bad (0/0) [0/0]
|   |   |   |   |   country = SI : bad (0/0) [0/0]
|   |   |   |   |   country = AUSTRALIA : bad (0/0) [0/0]
|   |   |   |   |   country = INDIA : bad (0/0) [0/0]
|   |   |   |   |   country = DZ : bad (0/0) [0/0]
|   |   |   |   |   country = LV : bad (0/0) [0.03/0]
|   |   |   |   |   country = MA : bad (0/0) [0/0]
|   |   |   |   |   country = MT : bad (0/0) [0/0]
|   |   |   |   |   country = KY : bad (0/0) [0/0]
|   |   |   |   |   country = CANADA : bad (0/0) [0/0]
|   |   |   |   |   country = QA : bad (0/0) [0/0]
|   |   |   |   |   country = UY : bad (0/0) [0/0]
|   |   |   |   |   country = MN : bad (0/0) [0/0]
|   |   |   |   |   country = PANAMA : bad (0/0) [0/0]
|   |   |   num_ip >= 4.5 : good (39.68/0.12) [16.29/0.09]
|   |   registrar = dynamic network services inc : good (0/0) [0/0]
|   |   registrar = google inc. : bad (10.79/1.72) [3.9/1.28]
|   |   registrar = namesilo llc : bad (1.2/0.08) [2.1/0.03]
|   |   registrar = web commerce communications limited dba webnic.cc : bad (5.99/0.4) [3.5/0.16]
|   |   registrar = namecheap : good (0/0) [0/0]
|   |   registrar = register.it s.p.a. : good (0/0) [0/0]
|   |   registrar = network solutions llc (r63-lror) : good (39.56/3.91) [12.29/2.25]
|   |   registrar = crazy domains fz-llc : bad (3.6/0.24) [1.3/0.09]
|   |   registrar = regru-ru : good (0/0) [0/0]
|   |   registrar = gmo internet inc. : good (0/0) [0/0]
|   |   registrar = national informatics centre (r12-afin) : good (0/0) [0/0]
|   |   registrar = endurance domains technology pvt. ltd. (r173-afin) : good (0/0) [0/0]
|   |   registrar = melbourne it ltd : good (1.2/0.12) [1.1/0.07]
|   |   registrar = todaynic.com inc. : bad (4.8/0.32) [4.4/0.13]
|   |   registrar = name.com inc. : good (0/0) [0/0]
|   |   registrar = gmo internet inc. d/b/a onamae.com : bad (17.98/2.2) [15.5/0.47]
|   |   registrar = dynadot llc
|   |   |   reg_time < 1376107200 : good (2.75/0.83) [2.81/0.43]
|   |   |   reg_time >= 1376107200 : bad (12.83/0.12) [6.48/0.03]
|   |   registrar = fbs inc. : good (0/0) [0/0]
|   |   registrar = psi-usa inc. dba domain robot : good (0/0) [0/0]
|   |   registrar = gmo internet inc. dba onamae.com : good (0/0) [0/0]
|   |   registrar = safebrands sas : good (0/0) [0/0]
|   |   registrar = tld registrar solutions ltd. : bad (3.6/0.24) [1.3/0.09]
|   |   registrar = 1 & 1 internet ag
|   |   |   reg_time < 1289145600 : good (3.15/1.54) [1.51/0.27]
|   |   |   reg_time >= 1289145600 : bad (7.64/0.11) [2.39/0.04]
|   |   registrar = namecheap inc. : good (0/0) [0/0]
|   |   registrar = dattatec.com srl : good (0/0) [0/0]
|   |   registrar = 1&1 internet se : good (0/0) [0/0]
|   |   registrar = easydns technologies inc.
|   |   |   num_ip < 2.5 : bad (8.53/2.91) [6.35/2.95]
|   |   |   num_ip >= 2.5 : good (53.8/0.54) [35.84/0.15]
|   |   registrar = regional network information center jsc dba ru-center : bad (2.4/1.16) [0.2/0.06]
|   |   registrar = onlinenic inc. : bad (5.99/1.4) [1.5/0.16]
|   |   registrar = godaddy.com llc (r171-lrms) : good (0/0) [0/0]
|   |   registrar = domainpeople inc. : good (1.2/0.12) [0.1/0.07]
|   |   registrar = mesh digital limited : good (8.39/1.83) [1.7/0.48]
|   |   registrar = goepp.co.za : good (0/0) [0/0]
|   |   registrar = nic .pe : good (0/0) [0/0]
|   |   registrar = deluxe small business sales inc. d/b/a aplus.net : bad (2.4/0.16) [2.2/0.06]
|   |   registrar = dnc holdings inc. : good (4.8/1.47) [2.4/0.27]
|   |   registrar = melbourne it ltd. d/b/a internet names worldwide : good (0/0) [0/0]
|   |   registrar = godaddy.com llc (r101-afin) : good (0/0) [0/0]
|   |   registrar = reg-internet-cz : good (0/0) [0/0]
|   |   registrar = moniker online services llc : bad (2.4/1.16) [1.2/0.06]
|   |   registrar = lexsynergy limited : good (0/0) [0/0]
|   |   registrar = gabia inc. : bad (1.2/0.08) [1.1/0.03]
|   |   registrar = 35 technology co. ltd. : good (0/0) [0/0]
|   |   registrar = bizcn.com inc. : bad (0/0) [1/0]
|   |   registrar = webcc : good (0/0) [0/0]
|   |   registrar = csl computer service langenbach gmbh d/b/a joker.com a german gmbh : good (3.6/0.36) [1.3/0.2]
|   |   registrar = launchpad inc. (hostgator) : good (0/0) [0/0]
|   |   registrar = in2net network inc. : bad (1.2/0.08) [0.1/0.03]
|   |   registrar = omnis network llc : good (3.6/0.36) [0.3/0.2]
|   |   registrar = r01-reg-fid : good (0/0) [0/0]
|   |   registrar = bigrock solutions limited : good (0/0) [0/0]
|   |   registrar = register.it spa : bad (1.2/0.08) [1.1/0.03]
|   |   registrar = onlinenic inc : good (0/0) [0/0]
|   |   registrar = regtime-ru : good (0/0) [0/0]
|   |   registrar = go daddy llc : good (0/0) [0/0]
|   |   registrar = nics telekomunikasyon ticaret ltd.sti. : good (0/0) [0/0]
|   |   registrar = enom inc : good (0/0) [0/0]
|   |   registrar = pdr ltd. d/b/a publicdomainregistry.com (r27-lror)
|   |   |   country = US : bad (5.32/1.16) [1.23/0.7]
|   |   |   country = FR : good (0.59/0.04) [0.27/0.06]
|   |   |   country = GB : good (6.6/0.3) [2.39/0.19]
|   |   |   country = ID : bad (5.41/0.18) [3.28/0.15]
|   |   |   country = CA : bad (0.06/0.02) [0.03/0]
|   |   |   country = CN : bad (2.29/0.09) [0.2/0.06]
|   |   |   country = DE : good (0.23/0.02) [0.07/0.01]
|   |   |   country = TR : bad (0.09/0) [1.09/0]
|   |   |   country = JP : good (0.06/0) [0.02/0.02]
|   |   |   country = SG : bad (0/0) [0/0]
|   |   |   country = UK : bad (0/0) [0/0]
|   |   |   country = IN : bad (3.37/0.11) [4.23/0.11]
|   |   |   country = BS : good (0/0) [0.03/0.01]
|   |   |   country = RU : good (1.1/0.05) [0.06/0.03]
|   |   |   country = AR : bad (2.21/0.07) [0.12/0.06]
|   |   |   country = ES : bad (0.05/0.02) [0.03/0]
|   |   |   country = PA : bad (0.02/0) [0/0]
|   |   |   country = IL : good (0.03/0) [0/0]
|   |   |   country = NZ : good (0.02/0) [0/0]
|   |   |   country = UA : bad (1.11/0.05) [0.06/0.03]
|   |   |   country = AU : bad (2.38/1.14) [4.21/0.1]
|   |   |   country = TH : bad (0.02/0) [0/0]
|   |   |   country = NL : bad (0.19/0.01) [0.07/0.02]
|   |   |   country = IT : bad (0.03/0) [0/0]
|   |   |   country = AT : good (0.02/0) [0/0]
|   |   |   country = CH : bad (0/0) [0/0]
|   |   |   country = CY : bad (0/0) [0/0]
|   |   |   country = UNITED STATES : bad (0/0) [0/0]
|   |   |   country = CO : bad (1.08/0.04) [0.06/0.03]
|   |   |   country = BD : bad (0.03/0) [0.03/0]
|   |   |   country = FI : bad (0/0) [0/0]
|   |   |   country = BE : good (0.03/0) [0/0]
|   |   |   country = AL : bad (0/0) [0/0]
|   |   |   country = CZ : bad (0.02/0) [0/0]
|   |   |   country = NG : bad (3.31/0.11) [2.3/0.09]
|   |   |   country = PH : good (0.02/0) [0/0]
|   |   |   country = ZA : bad (0.03/0) [0/0]
|   |   |   country = COLOMBIA : bad (0/0) [0/0]
|   |   |   country = MY : bad (0.02/0) [0/0]
|   |   |   country = DK : bad (0.03/0.02) [0.02/0]
|   |   |   country = KR : bad (0.08/0) [0.09/0.03]
|   |   |   country = IE : bad (0/0) [0/0]
|   |   |   country = PT : bad (0/0) [0/0]
|   |   |   country = KE : bad (0/0) [0/0]
|   |   |   country = LU : bad (0/0) [0/0]
|   |   |   country = DO : bad (0/0) [0.01/0]
|   |   |   country = EG : bad (0/0) [0/0]
|   |   |   country = IR : bad (0/0) [0/0]
|   |   |   country = PL : bad (0.03/0) [0/0]
|   |   |   country = RUSSIAN FEDERATION : bad (0/0) [0/0]
|   |   |   country = BR : bad (0/0) [0/0]
|   |   |   country = RO : bad (0.02/0) [0/0]
|   |   |   country = MX : bad (0.03/0) [0.03/0]
|   |   |   country = NO : good (0.11/0.02) [0.02/0]
|   |   |   country = AE : bad (0/0) [0/0]
|   |   |   country = PK : good (1.1/0.06) [0.06/0.03]
|   |   |   country = CR : bad (0/0) [0/0]
|   |   |   country = GH : bad (0/0) [0/0]
|   |   |   country = SA : bad (0/0) [0/0]
|   |   |   country = LK : bad (0/0) [0/0]
|   |   |   country = BG : bad (0/0) [0.01/0]
|   |   |   country = HU : bad (0/0) [0/0]
|   |   |   country = SE : good (0.12/0.01) [0.02/0.02]
|   |   |   country = KW : bad (0/0) [0/0]
|   |   |   country = CZECH REPUBLIC : bad (0/0) [0/0]
|   |   |   country = VE : bad (0/0) [0/0]
|   |   |   country = BRASIL : bad (0/0) [0/0]
|   |   |   country = RS : bad (0/0) [0/0]
|   |   |   country = TL : bad (0/0) [0/0]
|   |   |   country = PE : bad (0.02/0) [0.07/0]
|   |   |   country = HK : bad (0/0) [0/0]
|   |   |   country = CHINA : bad (0/0) [0/0]
|   |   |   country = MALAYSIA : bad (0/0) [0/0]
|   |   |   country = UG : bad (0/0) [0/0]
|   |   |   country = JO : bad (0/0) [0/0]
|   |   |   country = LB : bad (0/0) [0/0]
|   |   |   country = POLAND : bad (0/0) [0/0]
|   |   |   country = VN : bad (0/0) [1/0]
|   |   |   country = NP : bad (0/0) [0/0]
|   |   |   country = AM : bad (0/0) [0/0]
|   |   |   country = GR : bad (0/0) [0/0]
|   |   |   country = BY : good (0/0) [1/0]
|   |   |   country = NA : bad (0/0) [0/0]
|   |   |   country = CL : bad (0.03/0) [0/0]
|   |   |   country = UNITED KINGDOM : bad (0/0) [0/0]
|   |   |   country = HR : bad (0/0) [0/0]
|   |   |   country = TW : bad (0/0) [0/0]
|   |   |   country = SD : bad (0/0) [0/0]
|   |   |   country = SI : bad (0/0) [0/0]
|   |   |   country = AUSTRALIA : bad (0/0) [0/0]
|   |   |   country = INDIA : bad (0/0) [0/0]
|   |   |   country = DZ : bad (0/0) [0/0]
|   |   |   country = LV : bad (0/0) [0.01/0]
|   |   |   country = MA : bad (0/0) [0/0]
|   |   |   country = MT : bad (0/0) [0/0]
|   |   |   country = KY : bad (0/0) [0/0]
|   |   |   country = CANADA : bad (0/0) [0/0]
|   |   |   country = QA : bad (0/0) [0/0]
|   |   |   country = UY : bad (1.08/0.04) [0.06/0.03]
|   |   |   country = MN : bad (0/0) [0/0]
|   |   |   country = PANAMA : bad (0/0) [0/0]
|   |   registrar = realtime register b.v. : bad (3.6/0.24) [2.3/0.09]
|   |   registrar = bizcn.cominc. : good (0/0) [0/0]
|   |   registrar = new dream network llc : good (0/0) [0/0]
|   |   registrar = webnames.ca inc : good (0/0) [0/0]
|   |   registrar = gandi sas (r91-afin) : good (0/0) [0/0]
|   |   registrar = godaddy.com inc. (r171-lrms) : good (0/0) [0/0]
|   |   registrar = ihs telekom inc. : good (0/0) [0/0]
|   |   registrar = ascio technologies inc. : good (0/0) [0/0]
|   |   registrar = nominalia internet s.l. : good (0/0) [0/0]
|   |   registrar = ????????????? : good (0/0) [0/0]
|   |   registrar = new dream network llc dba dreamhost web hosting : good (9.59/0.95) [1.8/0.55]
|   |   registrar = arsys internet s.l. dba nicline.com : bad (2.4/0.16) [0.2/0.06]
|   |   registrar = eurodns s.a. : good (0/0) [0/0]
|   |   registrar = cronon ag : good (17.98/1.78) [9.5/1.02]
|   |   registrar = endurance domains technology llp (r173-afin) : good (0/0) [0/0]
|   |   registrar = ihs telekom inc : good (0/0) [0/0]
|   |   registrar = akky (una division de nic mexico) : good (0/0) [0/0]
|   |   registrar = bigrock solutions ltd : good (0/0) [0/0]
|   |   registrar = tlds llc. d/b/a srsplus : good (0/0) [0/0]
|   |   registrar = shanghai meicheng technology information development co. ltd. : good (0/0) [0/0]
|   |   registrar = wa networks : good (0/0) [0/0]
|   |   registrar = xinnet technology corporation : good (0/0) [0/0]
|   |   registrar = launchpad.com inc. : bad (3.6/0.24) [0.3/0.09]
|   |   registrar = ardis-su : good (0/0) [0/0]
|   |   registrar = pairnic inc : good (0/0) [0/0]
|   |   registrar = hosting concepts b.v. d/b/a openprovider : bad (2.4/0.16) [0.2/0.06]
|   |   registrar = tucows inc. (r11-lror) : bad (29.97/11.01) [14.5/1.79]
|   |   registrar = webfusion ltd. : good (0/0) [0/0]
|   |   registrar = chengdu west dimension digital technology co. ltd : good (0/0) [0/0]
|   |   registrar = enom inc. (r39-lror)
|   |   |   country = US
|   |   |   |   reg_time < 1289059200
|   |   |   |   |   avg_path < 4.18 : good (6.32/0.55) [3.14/1.26]
|   |   |   |   |   avg_path >= 4.18
|   |   |   |   |   |   max_path < 10.5
|   |   |   |   |   |   |   avg_host < 6.5 : bad (2.18/0.04) [0.04/0]
|   |   |   |   |   |   |   avg_host >= 6.5 : good (4.01/0.54) [2.47/0.29]
|   |   |   |   |   |   max_path >= 10.5 : bad (3.45/0.03) [5.25/0.09]
|   |   |   |   reg_time >= 1289059200 : bad (7.59/0.09) [0.41/0.08]
|   |   |   country = FR : good (0.75/0.08) [0.34/0.07]
|   |   |   country = GB : good (2.34/0.22) [1.16/0.09]
|   |   |   country = ID : bad (0/0) [0/0]
|   |   |   country = CA : good (1.18/0.15) [0.09/0.06]
|   |   |   country = CN : bad (0.16/0.02) [0.11/0]
|   |   |   country = DE : good (0.29/0.04) [0.09/0.01]
|   |   |   country = TR : bad (0.12/0) [0.11/0]
|   |   |   country = JP : bad (2.28/1.09) [0.12/0.05]
|   |   |   country = SG : bad (0/0) [1/0]
|   |   |   country = UK : bad (0/0) [0/0]
|   |   |   country = IN : bad (0.16/0) [0.08/0.02]
|   |   |   country = BS : good (0/0) [0.04/0.02]
|   |   |   country = RU : good (1.12/0.1) [1.05/0.03]
|   |   |   country = AR : bad (0.06/0) [0/0]
|   |   |   country = ES : good (0.06/0.04) [1.04/0.04]
|   |   |   country = PA : bad (7.73/1.05) [3.36/0.18]
|   |   |   country = IL : good (0.04/0) [0/0]
|   |   |   country = NZ : bad (1.12/0.03) [1.05/0.03]
|   |   |   country = UA : bad (0.04/0.02) [0/0]
|   |   |   country = AU : bad (0.27/0.07) [0.12/0.04]
|   |   |   country = TH : bad (0.02/0) [0/0]
|   |   |   country = NL : bad (0.24/0) [0.08/0.02]
|   |   |   country = IT : bad (0.04/0) [0/0]
|   |   |   country = AT : good (0.02/0) [0/0]
|   |   |   country = CH : bad (0/0) [0/0]
|   |   |   country = CY : bad (0/0) [0/0]
|   |   |   country = UNITED STATES : bad (0/0) [0/0]
|   |   |   country = CO : bad (0/0) [0/0]
|   |   |   country = BD : bad (0.04/0) [0.04/0]
|   |   |   country = FI : bad (0/0) [0/0]
|   |   |   country = BE : good (0.04/0) [0/0]
|   |   |   country = AL : bad (0/0) [0/0]
|   |   |   country = CZ : bad (0.02/0) [0/0]
|   |   |   country = NG : bad (0.08/0) [0.16/0]
|   |   |   country = PH : good (0.02/0) [0/0]
|   |   |   country = ZA : bad (0.04/0) [0/0]
|   |   |   country = COLOMBIA : bad (0/0) [0/0]
|   |   |   country = MY : bad (0.02/0) [0/0]
|   |   |   country = DK : bad (0.04/0.02) [0.02/0]
|   |   |   country = KR : bad (0.1/0) [0.11/0.04]
|   |   |   country = IE : bad (0/0) [0/0]
|   |   |   country = PT : bad (0/0) [0/0]
|   |   |   country = KE : bad (1.1/0.01) [0.05/0.03]
|   |   |   country = LU : bad (0/0) [0/0]
|   |   |   country = DO : bad (0/0) [0.02/0]
|   |   |   country = EG : bad (0/0) [0/0]
|   |   |   country = IR : bad (0/0) [0/0]
|   |   |   country = PL : bad (0.04/0) [0/0]
|   |   |   country = RUSSIAN FEDERATION : bad (0/0) [0/0]
|   |   |   country = BR : bad (0/0) [5/0]
|   |   |   country = RO : bad (0.02/0) [0/0]
|   |   |   country = MX : bad (0.04/0) [0.04/0]
|   |   |   country = NO : bad (1.24/0.12) [0.08/0.05]
|   |   |   country = AE : bad (0/0) [0/0]
|   |   |   country = PK : good (1.12/0.11) [1.05/0.03]
|   |   |   country = CR : bad (1.1/0.01) [0.05/0.03]
|   |   |   country = GH : bad (0/0) [0/0]
|   |   |   country = SA : bad (0/0) [0/0]
|   |   |   country = LK : bad (0/0) [0/0]
|   |   |   country = BG : good (0/0) [1.02/0.02]
|   |   |   country = HU : bad (0/0) [0/0]
|   |   |   country = SE : good (0.16/0.01) [0.03/0.02]
|   |   |   country = KW : bad (0/0) [0/0]
|   |   |   country = CZECH REPUBLIC : bad (0/0) [0/0]
|   |   |   country = VE : bad (0/0) [0/0]
|   |   |   country = BRASIL : bad (0/0) [0/0]
|   |   |   country = RS : bad (0/0) [0/0]
|   |   |   country = TL : bad (0/0) [0/0]
|   |   |   country = PE : bad (0.02/0) [0.09/0]
|   |   |   country = HK : bad (0/0) [0/0]
|   |   |   country = CHINA : bad (0/0) [0/0]
|   |   |   country = MALAYSIA : bad (0/0) [0/0]
|   |   |   country = UG : bad (0/0) [0/0]
|   |   |   country = JO : bad (0/0) [0/0]
|   |   |   country = LB : bad (0/0) [0/0]
|   |   |   country = POLAND : bad (0/0) [0/0]
|   |   |   country = VN : bad (1.1/0.01) [0.05/0.03]
|   |   |   country = NP : bad (0/0) [0/0]
|   |   |   country = AM : bad (0/0) [0/0]
|   |   |   country = GR : bad (0/0) [0/0]
|   |   |   country = BY : bad (0/0) [0/0]
|   |   |   country = NA : bad (0/0) [0/0]
|   |   |   country = CL : bad (0.04/0) [0/0]
|   |   |   country = UNITED KINGDOM : bad (0/0) [0/0]
|   |   |   country = HR : bad (0/0) [0/0]
|   |   |   country = TW : bad (0/0) [0/0]
|   |   |   country = SD : bad (0/0) [0/0]
|   |   |   country = SI : bad (0/0) [0/0]
|   |   |   country = AUSTRALIA : bad (0/0) [0/0]
|   |   |   country = INDIA : bad (0/0) [0/0]
|   |   |   country = DZ : bad (0/0) [0/0]
|   |   |   country = LV : bad (0/0) [0.02/0]
|   |   |   country = MA : bad (0/0) [0/0]
|   |   |   country = MT : bad (0/0) [0/0]
|   |   |   country = KY : bad (0/0) [0/0]
|   |   |   country = CANADA : bad (0/0) [0/0]
|   |   |   country = QA : bad (0/0) [0/0]
|   |   |   country = UY : bad (0/0) [0/0]
|   |   |   country = MN : bad (0/0) [0/0]
|   |   |   country = PANAMA : bad (0/0) [0/0]
|   |   registrar = hetzner (pty) ltd : good (0/0) [0/0]
|   |   registrar = se direkt : good (0/0) [0/0]
|   |   registrar = axxess dsl : good (0/0) [0/0]
|   |   registrar = gkg.net inc. : good (3.6/0.36) [4.3/0.2]
|   |   registrar = stichting registrar of last resort foundation : good (0/0) [0/0]
|   |   registrar = pair networks inc.d/b/a pairnic : good (3.6/0.36) [1.3/0.2]
|   |   registrar = reliable software ltd : good (0/0) [0/0]
|   |   registrar = ardis-ru : good (0/0) [0/0]
|   |   registrar = ovh sas : good (0/0) [0/0]
|   |   registrar = name.com llc : bad (14.39/3.96) [5.2/2.38]
|   |   registrar = webiq domains solutions pvt. ltd. (r131-afin) : good (0/0) [0/0]
|   |   registrar = danesco trading ltd. : good (0/0) [0/0]
|   |   registrar = universo online s/a (uol) : good (0/0) [0/0]
|   |   registrar = open contact ltd : good (0/0) [0/0]
|   |   registrar = register.com inc. (r71-lror) : good (3.6/0.36) [1.3/0.2]
|   |   registrar = rospot srl : good (0/0) [0/0]
|   |   registrar = registrar of domain names reg.ru llc : bad (9.59/0.64) [2.8/0.25]
|   |   registrar = internet invest ltd. dba imena.ua : good (1.2/0.12) [0.1/0.07]
|   |   registrar = wild west domains inc. : good (0/0) [0/0]
|   |   registrar = netregistry pty ltd : good (0/0) [0/0]
|   |   registrar = online sas : bad (2.4/0.16) [0.2/0.06]
|   |   registrar = netearth one inc. d/b/a netearth : bad (7.19/0.48) [1.6/0.19]
|   |   registrar = tierranet inc. dba domaindiscover : good (3.6/0.36) [0.3/0.2]
|   |   registrar = namebay : good (0/0) [0/0]
|   |   registrar = dreamhost : good (0/0) [0/0]
|   |   registrar = netearth one inc. : good (0/0) [0/0]
|   |   registrar = tucows.com co. : good (0/0) [0/0]
|   |   registrar = hooyoo information technology co.ltd. : good (0/0) [0/0]
|   |   registrar = liquidnet ltd. : good (0/0) [0/0]
|   |   registrar = ici - rotld : good (0/0) [0/0]
|   |   registrar = net 4 india limited : bad (3.6/1.24) [1.3/0.09]
|   |   registrar = beijing innovative linkage technology ltd. : good (0/0) [0/0]
|   |   registrar = t.h.nic co. ltd. : good (0/0) [0/0]
|   |   registrar = paknic private limited : good (0/0) [0/0]
|   |   registrar = gip renater : good (0/0) [0/0]
|   |   registrar = ip mirror pte ltd : good (0/0) [0/0]
|   |   registrar = 1 & 1 internet ag (r73-lror) : good (2.4/0.24) [1.2/0.14]
|   |   registrar = gandi : good (0/0) [0/0]
|   |   registrar = regtime ltd. : bad (1.2/0.08) [0.1/0.03]
|   |   registrar = netregistry pty. ltd. : good (0/0) [0/0]
|   |   registrar = xin net technology corporation : good (0/0) [0/0]
|   |   registrar = soluciones corporativas ipslu : good (0/0) [0/0]
|   |   registrar = shinjiru msc sdn bhd : good (0/0) [0/0]
|   |   registrar = 1 api gmbh : good (0/0) [0/0]
|   |   registrar = ??????????????* : good (0/0) [0/0]
|   |   registrar = realtime register bv : good (0/0) [0/0]
|   |   registrar = pdr ltd : good (0/0) [0/0]
|   |   registrar = tld registrar solutions ltd : good (0/0) [0/0]
|   |   registrar = romarg srl : good (0/0) [0/0]
|   |   registrar = easyspace ltd. : good (0/0) [0/0]
|   |   registrar = internet.bs corp. : good (0/0) [0/0]
|   |   registrar = guangdong jinwanbang technology investment co. ltd. : good (0/0) [0/0]
|   |   registrar = reg2c.com inc. : good (0/0) [0/0]
|   |   registrar = alpnames limited : good (0/0) [0/0]
|   |   registrar = csl computer service langenbach gmbh d/b/a joker.com : good (0/0) [0/0]
|   |   registrar = evoplus ltd : good (0/0) [0/0]
|   |   registrar = tlds l.l.c. d/b/a srsplus : good (0/0) [3/0]
|   |   registrar = zhuhai naisinike information technology co. ltd. : good (0/0) [0/0]
|   |   registrar = gransy s.r.o d/b/a subreg.cz : good (0/0) [0/0]
|   |   registrar = gandi sas (r42-lror) : good (7.19/0.71) [2.6/0.41]
|   |   registrar = namecheap inc : good (0/0) [0/0]
|   |   registrar = r01-su : good (0/0) [0/0]
|   |   registrar = domaincontext inc. : good (0/0) [0/0]
|   |   registrar = internet domain service bs corp : good (0/0) [0/0]
|   |   registrar = registrygate gmbh : good (0/0) [0/0]
|   |   registrar = amazon registrar inc. : good (1.2/0.12) [1.1/0.07]
|   |   registrar = p.a. viet nam company limited : bad (0/0) [1/0]
|   |   registrar = cloud group limited : good (0/0) [0/0]
|   |   registrar = jiangsu bangning science & technology co. ltd : good (0/0) [0/0]
|   |   registrar = mat bao corporation : good (0/0) [0/0]
|   |   registrar = moniker online services inc. : good (0/0) [0/0]
|   |   registrar = melbourne it ltd (r52-lror) : good (1.2/0.12) [1.1/0.07]
|   |   registrar = enom inc. (r126-lrms) : good (0/0) [0/0]
|   tld = com
|   |   registrar = markmonitor inc.
|   |   |   num_ip < 2.5
|   |   |   |   num_ip < 1.5 : bad (51.61/0.9) [24.59/0.52]
|   |   |   |   num_ip >= 1.5
|   |   |   |   |   reg_time < 1227024000
|   |   |   |   |   |   max_host < 8.5 : good (27.07/4.63) [9.32/2.2]
|   |   |   |   |   |   max_host >= 8.5 : bad (17.41/4.13) [6.74/0.35]
|   |   |   |   |   reg_time >= 1227024000 : bad (28.2/1.51) [13.81/1.75]
|   |   |   num_ip >= 2.5
|   |   |   |   reg_time < 982728000 : good (252.47/3.75) [117.09/3.07]
|   |   |   |   reg_time >= 982728000
|   |   |   |   |   max_host < 7.5 : good (85.58/2.22) [38.77/0.62]
|   |   |   |   |   max_host >= 7.5
|   |   |   |   |   |   avg_path < 5.55
|   |   |   |   |   |   |   reg_time < 1029427200 : bad (2.33/0.06) [0.08/0.01]
|   |   |   |   |   |   |   reg_time >= 1029427200 : good (58.24/3.24) [22.68/2.14]
|   |   |   |   |   |   avg_path >= 5.55
|   |   |   |   |   |   |   max_path < 15.5
|   |   |   |   |   |   |   |   avg_path < 6.1 : bad (2.85/0.05) [1.3/1]
|   |   |   |   |   |   |   |   avg_path >= 6.1 : good (4.55/1.38) [2.57/0.56]
|   |   |   |   |   |   |   max_path >= 15.5 : bad (3.97/0.04) [2.43/0]
|   |   registrar = ovh : bad (37.98/0.6) [21.72/0.25]
|   |   registrar = enom inc.
|   |   |   reg_time < 1124553600
|   |   |   |   num_ip < 2.5
|   |   |   |   |   avg_host < 10.75
|   |   |   |   |   |   reg_time < 920260800
|   |   |   |   |   |   |   country = US : good (4.57/1.55) [1.58/0.58]
|   |   |   |   |   |   |   country = FR : good (0/0) [0/0]
|   |   |   |   |   |   |   country = GB : good (0.13/0.05) [0.02/0.02]
|   |   |   |   |   |   |   country = ID : good (0/0) [0/0]
|   |   |   |   |   |   |   country = CA : good (0/0) [0/0]
|   |   |   |   |   |   |   country = CN : good (0/0) [0/0]
|   |   |   |   |   |   |   country = DE : good (0/0) [0/0]
|   |   |   |   |   |   |   country = TR : good (0/0) [0/0]
|   |   |   |   |   |   |   country = JP : good (0/0) [0/0]
|   |   |   |   |   |   |   country = SG : good (0/0) [0/0]
|   |   |   |   |   |   |   country = UK : good (0/0) [0/0]
|   |   |   |   |   |   |   country = IN : good (0/0) [0/0]
|   |   |   |   |   |   |   country = BS : good (0/0) [0/0]
|   |   |   |   |   |   |   country = RU : good (0/0) [0/0]
|   |   |   |   |   |   |   country = AR : good (0/0) [0/0]
|   |   |   |   |   |   |   country = ES : bad (0.13/0) [0.02/0]
|   |   |   |   |   |   |   country = PA : good (3.05/1.03) [1.39/0.38]
|   |   |   |   |   |   |   country = IL : good (0/0) [0/0]
|   |   |   |   |   |   |   country = NZ : good (0/0) [0/0]
|   |   |   |   |   |   |   country = UA : good (0/0) [0/0]
|   |   |   |   |   |   |   country = AU : bad (1.65/0.01) [0.21/0]
|   |   |   |   |   |   |   country = TH : good (0/0) [0/0]
|   |   |   |   |   |   |   country = NL : good (0/0) [0/0]
|   |   |   |   |   |   |   country = IT : good (0/0) [0/0]
|   |   |   |   |   |   |   country = AT : good (0/0) [0/0]
|   |   |   |   |   |   |   country = CH : good (0/0) [0/0]
|   |   |   |   |   |   |   country = CY : good (0/0) [0/0]
|   |   |   |   |   |   |   country = UNITED STATES : good (0/0) [0/0]
|   |   |   |   |   |   |   country = CO : good (0/0) [0/0]
|   |   |   |   |   |   |   country = BD : good (0/0) [0/0]
|   |   |   |   |   |   |   country = FI : good (0/0) [0/0]
|   |   |   |   |   |   |   country = BE : good (0/0) [0/0]
|   |   |   |   |   |   |   country = AL : good (0/0) [0/0]
|   |   |   |   |   |   |   country = CZ : good (0/0) [0/0]
|   |   |   |   |   |   |   country = NG : good (0/0) [0/0]
|   |   |   |   |   |   |   country = PH : good (0/0) [0/0]
|   |   |   |   |   |   |   country = ZA : good (0/0) [0/0]
|   |   |   |   |   |   |   country = COLOMBIA : good (0/0) [0/0]
|   |   |   |   |   |   |   country = MY : good (0/0) [0/0]
|   |   |   |   |   |   |   country = DK : good (0/0) [0/0]
|   |   |   |   |   |   |   country = KR : bad (0.14/0) [0.02/0]
|   |   |   |   |   |   |   country = IE : good (0/0) [0/0]
|   |   |   |   |   |   |   country = PT : good (0/0) [0/0]
|   |   |   |   |   |   |   country = KE : good (0/0) [0/0]
|   |   |   |   |   |   |   country = LU : good (0/0) [0/0]
|   |   |   |   |   |   |   country = DO : good (0/0) [0/0]
|   |   |   |   |   |   |   country = EG : good (0/0) [0/0]
|   |   |   |   |   |   |   country = IR : good (0/0) [0/0]
|   |   |   |   |   |   |   country = PL : good (0/0) [0/0]
|   |   |   |   |   |   |   country = RUSSIAN FEDERATION : good (0/0) [0/0]
|   |   |   |   |   |   |   country = BR : good (0/0) [0/0]
|   |   |   |   |   |   |   country = RO : good (0/0) [0/0]
|   |   |   |   |   |   |   country = MX : good (0/0) [0/0]
|   |   |   |   |   |   |   country = NO : good (0/0) [0/0]
|   |   |   |   |   |   |   country = AE : good (0/0) [0/0]
|   |   |   |   |   |   |   country = PK : good (0/0) [0/0]
|   |   |   |   |   |   |   country = CR : good (0/0) [0/0]
|   |   |   |   |   |   |   country = GH : good (0/0) [0/0]
|   |   |   |   |   |   |   country = SA : good (0/0) [0/0]
|   |   |   |   |   |   |   country = LK : good (0/0) [0/0]
|   |   |   |   |   |   |   country = BG : good (0/0) [0/0]
|   |   |   |   |   |   |   country = HU : good (0/0) [0/0]
|   |   |   |   |   |   |   country = SE : good (0/0) [0/0]
|   |   |   |   |   |   |   country = KW : good (0/0) [0/0]
|   |   |   |   |   |   |   country = CZECH REPUBLIC : good (0/0) [0/0]
|   |   |   |   |   |   |   country = VE : good (0/0) [0/0]
|   |   |   |   |   |   |   country = BRASIL : good (0/0) [0/0]
|   |   |   |   |   |   |   country = RS : good (0/0) [0/0]
|   |   |   |   |   |   |   country = TL : good (0/0) [0/0]
|   |   |   |   |   |   |   country = PE : good (0/0) [0/0]
|   |   |   |   |   |   |   country = HK : good (0/0) [0/0]
|   |   |   |   |   |   |   country = CHINA : good (0/0) [0/0]
|   |   |   |   |   |   |   country = MALAYSIA : good (0/0) [0/0]
|   |   |   |   |   |   |   country = UG : good (0/0) [0/0]
|   |   |   |   |   |   |   country = JO : good (0/0) [0/0]
|   |   |   |   |   |   |   country = LB : good (0/0) [0/0]
|   |   |   |   |   |   |   country = POLAND : good (0/0) [0/0]
|   |   |   |   |   |   |   country = VN : good (0/0) [0/0]
|   |   |   |   |   |   |   country = NP : good (0/0) [0/0]
|   |   |   |   |   |   |   country = AM : good (0/0) [0/0]
|   |   |   |   |   |   |   country = GR : good (0/0) [0/0]
|   |   |   |   |   |   |   country = BY : good (0/0) [0/0]
|   |   |   |   |   |   |   country = NA : good (0/0) [0/0]
|   |   |   |   |   |   |   country = CL : good (0/0) [0/0]
|   |   |   |   |   |   |   country = UNITED KINGDOM : good (0/0) [0/0]
|   |   |   |   |   |   |   country = HR : good (0/0) [0/0]
|   |   |   |   |   |   |   country = TW : good (0/0) [0/0]
|   |   |   |   |   |   |   country = SD : good (0/0) [0/0]
|   |   |   |   |   |   |   country = SI : good (0/0) [0/0]
|   |   |   |   |   |   |   country = AUSTRALIA : good (0/0) [0/0]
|   |   |   |   |   |   |   country = INDIA : good (0/0) [0/0]
|   |   |   |   |   |   |   country = DZ : good (0/0) [0/0]
|   |   |   |   |   |   |   country = LV : good (0/0) [0/0]
|   |   |   |   |   |   |   country = MA : good (0/0) [0/0]
|   |   |   |   |   |   |   country = MT : good (0/0) [0/0]
|   |   |   |   |   |   |   country = KY : good (0/0) [0/0]
|   |   |   |   |   |   |   country = CANADA : good (0/0) [0/0]
|   |   |   |   |   |   |   country = QA : good (0/0) [0/0]
|   |   |   |   |   |   |   country = UY : good (0/0) [0/0]
|   |   |   |   |   |   |   country = MN : good (0/0) [0/0]
|   |   |   |   |   |   |   country = PANAMA : good (0/0) [0/0]
|   |   |   |   |   |   reg_time >= 920260800
|   |   |   |   |   |   |   country = US : bad (16.96/1.48) [7.02/0.98]
|   |   |   |   |   |   |   country = FR : bad (0/0) [0/0]
|   |   |   |   |   |   |   country = GB : bad (1.27/0.11) [0.3/0]
|   |   |   |   |   |   |   country = ID : bad (0/0) [2/0]
|   |   |   |   |   |   |   country = CA : bad (2.1/1.03) [0.58/0]
|   |   |   |   |   |   |   country = CN : bad (0.46/0.01) [0.2/0]
|   |   |   |   |   |   |   country = DE : bad (0.15/0) [0.04/0]
|   |   |   |   |   |   |   country = TR : bad (0.15/0.09) [0.04/0]
|   |   |   |   |   |   |   country = JP : bad (1.79/0.03) [0.42/0]
|   |   |   |   |   |   |   country = SG : bad (0/0) [1/0]
